{"learner":{"attributes":{"best_iteration":"99","best_ntree_limit":"100","scikit_learn":"{\"use_label_encoder\": false, \"n_estimators\": 100, \"objective\": \"binary:logistic\", \"max_depth\": null, \"learning_rate\": null, \"verbosity\": null, \"booster\": null, \"tree_method\": null, \"gamma\": null, \"min_child_weight\": null, \"max_delta_step\": null, \"subsample\": null, \"colsample_bytree\": null, \"colsample_bylevel\": null, \"colsample_bynode\": null, \"reg_alpha\": null, \"reg_lambda\": null, \"scale_pos_weight\": 3.5671010919337793, \"base_score\": null, \"missing\": NaN, \"num_parallel_tree\": null, \"random_state\": 42, \"n_jobs\": null, \"monotone_constraints\": null, \"interaction_constraints\": null, \"importance_type\": null, \"gpu_id\": null, \"validate_parameters\": null, \"predictor\": null, \"enable_categorical\": false, \"classes_\": [0, 1], \"n_classes_\": 2, \"_estimator_type\": \"classifier\"}"},"feature_names":["person_age","person_income","person_emp_length","loan_amnt","loan_int_rate","loan_percent_income","cb_person_default_on_file","cb_person_cred_hist_length","person_home_ownership_OTHER","person_home_ownership_OWN","person_home_ownership_RENT","loan_intent_DEBTCONSOLIDATION","loan_intent_EDUCATION","loan_intent_HOMEIMPROVEMENT","loan_intent_MEDICAL","loan_intent_PERSONAL","loan_intent_VENTURE"],"feature_types":["float","float","float","float","float","float","int","int","int","int","int","int","int","int","int","int","int"],"gradient_booster":{"model":{"gbtree_model_param":{"num_trees":"100","size_leaf_vector":"0"},"tree_info":[0,0,0,0,0,0,0,0,0,0,0,0,0,0,0,0,0,0,0,0,0,0,0,0,0,0,0,0,0,0,0,0,0,0,0,0,0,0,0,0,0,0,0,0,0,0,0,0,0,0,0,0,0,0,0,0,0,0,0,0,0,0,0,0,0,0,0,0,0,0,0,0,0,0,0,0,0,0,0,0,0,0,0,0,0,0,0,0,0,0,0,0,0,0,0,0,0,0,0,0],"trees":[{"base_weights":[-2.5282539E-8,-4.32981E-1,1.5800191E0,-9.5531183E-1,1.0063412E0,1.2104591E-1,1.9988184E0,1.5483669E0,-1.0966728E0,1.0943019E0,-9.100337E-1,1.9701455E0,-1.7349125E-1,-3.2214558E-1,1.9920785E0,-3.9564782E-1,-1.2256151E0,1.4835607E0,8.260549E-1,1.4943321E0,-1.311561E0,-7.9644376E-1,8.527038E-1,-1.437199E0,-1.03113055E-1,-5.8491844E-1,1.1287676E0,-1.4922128E0,-9.527962E-1,5.974288E-1,1.71045E0,5.4682344E-1,1.6814636E0,-1.1111112E0,1.8411826E0,-1.9058685E0,3.0997342E-1,-4.9704698E-1,-1.8426048E0,1.0472417E0,-2.8599665E-1,-1.75E0,-7.4850045E-2,-1.1529504E0,1.686019E-1,-4.6615273E-1,-1.966805E0,-1.2354938E-1,1.9650239E0,-1.3944697E0,-1.9947575E0,-8.958669E-1,-1.9833333E0,1.9286698E-1,1.7304683E0,5.3801787E-1,1.8559964E0,-1.7568419E-2,1.545145E0,1.2800376E0,1.9382154E0,-4.7132218E-1,-1.9646018E0,7.495082E-1,-1.0551064E0,-3.4421855E-1,-1.5193511E0,1.0733332E-1,-1.9012781E0,7.8074765E-1,1.8240671E0,-1.4023508E0,1.4885422E0],"categories":[],"categories_nodes":[],"categories_segments":[],"categories_sizes":[],"default_left":[true,true,true,true,true,true,false,true,true,true,true,false,true,true,false,true,true,true,true,true,true,true,true,true,true,true,true,true,true,true,true,true,true,false,false,true,true,true,true,true,true,false,false,false,false,false,false,false,false,false,false,false,false,false,false,false,false,false,false,false,false,false,false,false,false,false,false,false,false,false,false,false,false],"id":0,"left_children":[1,3,5,7,9,11,-1,13,15,17,19,-1,21,23,-1,25,27,29,31,33,35,37,39,41,43,45,47,49,51,53,55,57,59,-1,-1,61,63,65,67,69,71,-1,-1,-1,-1,-1,-1,-1,-1,-1,-1,-1,-1,-1,-1,-1,-1,-1,-1,-1,-1,-1,-1,-1,-1,-1,-1,-1,-1,-1,-1,-1,-1],"loss_changes":[6.929434E3,5.978037E3,1.3309629E3,2.0664458E3,3.579214E2,2.6556122E2,0E0,2.5975812E2,4.9872266E2,2.1021558E2,9.219728E1,0E0,2.698004E2,1.4681561E1,0E0,2.4864207E2,3.378208E2,1.6482336E2,2.8596643E2,1.455574E1,7.828987E1,8.1296234E1,3.56332E1,4.0843334E0,1.4978644E1,1.2466965E2,1.0001226E2,1.13006836E2,1.3362744E2,7.744876E1,1.1097595E2,5.1105936E2,2.7934021E1,0E0,0E0,4.057068E0,1.4281724E1,3.1574787E1,6.8436584E0,2.6822815E1,4.9749714E1,0E0,0E0,0E0,0E0,0E0,0E0,0E0,0E0,0E0,0E0,0E0,0E0,0E0,0E0,0E0,0E0,0E0,0E0,0E0,0E0,0E0,0E0,0E0,0E0,0E0,0E0,0E0,0E0,0E0,0E0,0E0,0E0],"parents":[2147483647,0,0,1,1,2,2,3,3,4,4,5,5,7,7,8,8,9,9,10,10,12,12,13,13,15,15,16,16,17,17,18,18,19,19,20,20,21,21,22,22,23,23,24,24,25,25,26,26,27,27,28,28,29,29,30,30,31,31,32,32,35,35,36,36,37,37,38,38,39,39,40,40],"right_children":[2,4,6,8,10,12,-1,14,16,18,20,-1,22,24,-1,26,28,30,32,34,36,38,40,42,44,46,48,50,52,54,56,58,60,-1,-1,62,64,66,68,70,72,-1,-1,-1,-1,-1,-1,-1,-1,-1,-1,-1,-1,-1,-1,-1,-1,-1,-1,-1,-1,-1,-1,-1,-1,-1,-1,-1,-1,-1,-1,-1,-1],"split_conditions":[3.05E-1,1.3985E1,5E-1,1.9984E4,5E-1,1.99E4,5.9964556E-1,1.55E-1,3.4986E4,2.5E0,1.96E4,5.9104365E-1,1.3085E1,5E-1,5.976236E-1,5E-1,1.0764999E1,5E-1,5E-1,1.5E-1,1.6305E1,5E-1,5E-1,5.5E0,8.245E0,5E-1,5E-1,5E-1,5E-1,5E-1,1.4385E1,5E-1,1.5275E1,-3.3333337E-1,5.523548E-1,1.408E1,2.05E-1,5E-1,2.0002E4,5E-1,1.7314999E1,-5.2500004E-1,-2.2455014E-2,-3.4588513E-1,5.0580572E-2,-1.3984582E-1,-5.900415E-1,-3.7064817E-2,5.8950716E-1,-4.1834095E-1,-5.984273E-1,-2.687601E-1,-5.95E-1,5.7860095E-2,5.191405E-1,1.6140537E-1,5.5679893E-1,-5.270526E-3,4.6354353E-1,3.840113E-1,5.8146465E-1,-1.4139666E-1,-5.8938056E-1,2.2485247E-1,-3.1653193E-1,-1.0326557E-1,-4.5580536E-1,3.2199997E-2,-5.703835E-1,2.342243E-1,5.472202E-1,-4.2070526E-1,4.4656268E-1],"split_indices":[5,4,10,1,9,1,0,5,1,2,1,0,4,10,0,13,4,10,11,5,4,9,9,2,4,9,10,16,9,14,4,14,4,0,0,4,5,16,1,11,4,0,0,0,0,0,0,0,0,0,0,0,0,0,0,0,0,0,0,0,0,0,0,0,0,0,0,0,0,0,0,0,0],"split_type":[0,0,0,0,0,0,0,0,0,0,0,0,0,0,0,0,0,0,0,0,0,0,0,0,0,0,0,0,0,0,0,0,0,0,0,0,0,0,0,0,0,0,0,0,0,0,0,0,0,0,0,0,0,0,0,0,0,0,0,0,0,0,0,0,0,0,0,0,0,0,0,0,0],"sum_hessian":[1.0127E4,7.949329E3,2.1776707E3,5.8329023E3,2.116427E3,4.8597305E2,1.6916976E3,3.1120032E2,5.5217017E3,2.0239574E3,9.24697E1,6.599137E1,4.199817E2,5.9719707E1,2.5148062E2,8.584752E2,4.6632266E3,8.238791E2,1.2000782E3,1.2843079E1,7.9626625E1,2.6147623E2,1.5850546E2,8.891775E0,5.082793E1,7.642079E2,9.426735E1,2.3562446E3,2.306982E3,1.6868835E2,6.5519073E2,9.059786E2,2.9409967E2,1.25E0,1.1593079E1,5.8141777E1,2.1484854E1,2.0444267E2,5.703355E1,1.3544592E2,2.3059528E1,7E0,1.8917753E0,9.78355E0,4.104438E1,7.049579E2,5.925E1,3.8085506E1,5.618184E1,1.9757448E3,3.805E2,2.187982E3,1.19E2,1.25166695E2,4.352166E1,7.2872314E1,5.823184E2,5.794016E2,3.2657697E2,1.1706173E2,1.7703795E2,2.6417751E0,5.55E1,1.6593079E1,4.891775E0,1.7901735E2,2.5425325E1,1.6417753E0,5.5391777E1,1.0234202E2,3.310391E1,1.428355E1,8.775977E0],"tree_param":{"num_deleted":"0","num_feature":"17","num_nodes":"73","size_leaf_vector":"0"}},{"base_weights":[2.5386554E-3,-3.1526676E-1,1.2087402E0,-6.9191784E-1,7.606925E-1,8.952853E-2,1.5480064E0,1.1890333E0,-7.9443765E-1,8.249658E-1,-6.7069745E-1,1.5285045E0,-1.266148E-1,-2.4439292E-1,1.5498368E0,-5.387997E-1,-1.0735021E0,5.081045E-1,1.051519E0,1.1454114E0,-9.799331E-1,-5.0436616E-1,8.246028E-1,-5.4281545E-1,4.5220268E-1,-4.1488335E-1,-1.2604597E0,-1.1598936E0,-4.4180208E-1,6.644967E-1,-9.174661E-2,1.3724927E0,8.231478E-1,-9.418921E-1,1.4415218E0,-1.4629937E0,2.1618876E-1,-2.6722565E-1,-1.4399372E0,9.8035467E-1,-3.2697886E-1,-9.36256E-1,2.2325607E-1,8.480305E-1,-1.3730034E0,-3.4658903E-1,-1.6134526E0,-1.4197571E0,-5.439988E-1,-1.3746877E0,-1.0323433E0,2.8205144E-1,-6.458354E-1,7.365683E-1,-2.318853E-1,-4.5803714E-1,9.911492E-1,7.597198E-1,1.5276934E0,5.956026E-1,1.4946465E0,4.1370448E-2,-1.5240662E0,-1.5465221E-1,1.3277972E0,-3.3030242E-1,1.7778348E0,8.733785E-2,-1.4849564E0,1.1995591E0,-1.1539207E-1,1.4630224E0,-1.5450379E0],"categories":[],"categories_nodes":[],"categories_segments":[],"categories_sizes":[],"default_left":[true,true,true,true,true,true,false,true,true,true,true,false,true,true,false,true,true,true,true,true,true,true,true,true,true,true,true,true,true,true,true,true,true,false,false,true,true,true,true,true,true,false,false,false,false,false,false,false,false,false,false,false,false,false,false,false,false,false,false,false,false,false,false,false,false,false,false,false,false,false,false,false,false],"id":1,"left_children":[1,3,5,7,9,11,-1,13,15,17,19,-1,21,23,-1,25,27,29,31,33,35,37,39,41,43,45,47,49,51,53,55,57,59,-1,-1,61,63,65,67,69,71,-1,-1,-1,-1,-1,-1,-1,-1,-1,-1,-1,-1,-1,-1,-1,-1,-1,-1,-1,-1,-1,-1,-1,-1,-1,-1,-1,-1,-1,-1,-1,-1],"loss_changes":[3.7114688E3,3.1060366E3,7.665017E2,1.095581E3,1.8339734E2,1.4659831E2,0E0,1.5233032E2,3.8349512E2,1.360365E2,4.939674E1,0E0,1.4779942E2,1.2706886E1,0E0,2.5092535E2,1.3990161E2,7.464993E1,8.011609E1,9.372818E0,4.3067574E1,6.48873E1,2.129998E1,1.2994924E1,1.4547434E1,1.9599588E2,4.62005E1,6.057422E1,4.6137074E1,4.0921783E1,6.602268E1,4.251764E1,9.8444244E1,0E0,0E0,4.917145E0,9.338864E0,3.1022139E1,4.2044983E0,2.4946114E1,3.4278675E1,0E0,0E0,0E0,0E0,0E0,0E0,0E0,0E0,0E0,0E0,0E0,0E0,0E0,0E0,0E0,0E0,0E0,0E0,0E0,0E0,0E0,0E0,0E0,0E0,0E0,0E0,0E0,0E0,0E0,0E0,0E0,0E0],"parents":[2147483647,0,0,1,1,2,2,3,3,4,4,5,5,7,7,8,8,9,9,10,10,12,12,13,13,15,15,16,16,17,17,18,18,19,19,20,20,21,21,22,22,23,23,24,24,25,25,26,26,27,27,28,28,29,29,30,30,31,31,32,32,35,35,36,36,37,37,38,38,39,39,40,40],"right_children":[2,4,6,8,10,12,-1,14,16,18,20,-1,22,24,-1,26,28,30,32,34,36,38,40,42,44,46,48,50,52,54,56,58,60,-1,-1,62,64,66,68,70,72,-1,-1,-1,-1,-1,-1,-1,-1,-1,-1,-1,-1,-1,-1,-1,-1,-1,-1,-1,-1,-1,-1,-1,-1,-1,-1,-1,-1,-1,-1,-1,-1],"split_conditions":[3.05E-1,1.403E1,5E-1,1.9984E4,5E-1,1.99E4,4.6440193E-1,1.55E-1,5.96365E4,1.5275E1,1.96E4,4.5855138E-1,1.41E1,2.95E1,4.6495104E-1,5E-1,5E-1,7.9227E4,2.5E0,1.5E-1,1.6305E1,5E-1,5E-1,1.2085E1,1.1485E1,5E-1,1.257E1,8.92E0,1.101E1,1.5219999E1,5E-1,5E-1,5E-1,-2.8256765E-1,4.3245655E-1,1.41E1,5E-1,5E-1,2.0002E4,5E-1,1.5E0,-2.8087682E-1,6.697682E-2,2.5440916E-1,-4.1190103E-1,-1.0397671E-1,-4.840358E-1,-4.2592716E-1,-1.6319963E-1,-4.1240633E-1,-3.09703E-1,8.461544E-2,-1.9375063E-1,2.209705E-1,-6.9565594E-2,-1.3741115E-1,2.9734477E-1,2.2791594E-1,4.5830804E-1,1.7868078E-1,4.4839397E-1,1.2411135E-2,-4.5721987E-1,-4.6395663E-2,3.9833918E-1,-9.909073E-2,5.3335047E-1,2.6201356E-2,-4.4548693E-1,3.5986775E-1,-3.461762E-2,4.3890673E-1,-4.6351138E-1],"split_indices":[5,4,10,1,9,1,0,5,1,4,1,0,4,0,0,16,6,1,2,5,4,9,12,4,4,9,4,4,4,4,11,10,11,0,0,4,14,8,1,15,2,0,0,0,0,0,0,0,0,0,0,0,0,0,0,0,0,0,0,0,0,0,0,0,0,0,0,0,0,0,0,0,0],"split_type":[0,0,0,0,0,0,0,0,0,0,0,0,0,0,0,0,0,0,0,0,0,0,0,0,0,0,0,0,0,0,0,0,0,0,0,0,0,0,0,0,0,0,0,0,0,0,0,0,0,0,0,0,0,0,0,0,0,0,0,0,0,0,0,0,0,0,0,0,0,0,0,0,0],"sum_hessian":[9.679996E3,7.661984E3,2.0180118E3,5.6755527E3,1.9864313E3,4.6971698E2,1.5482948E3,2.928049E2,5.382748E3,1.9014736E3,8.495769E1,6.0547802E1,4.091692E2,5.8945328E1,2.3385959E2,2.8108184E3,2.5719297E3,7.940893E2,1.1073843E3,1.19678335E1,7.298985E1,2.9320157E2,1.1596762E2,4.1421192E1,1.7524137E1,2.4002463E3,4.1057187E2,2.2617722E3,3.1015744E2,6.29785E2,1.6430432E2,4.5827423E2,6.491101E2,1.2159108E0,1.0751923E1,5.183349E1,2.1156364E1,2.3493732E2,5.8264256E1,1.0228255E2,1.3685067E1,2.721956E1,1.420163E1,1.4840987E1,2.6831493E0,2.2720732E3,1.2817323E2,3.3508716E2,7.5484695E1,8.390464E2,1.4227258E3,6.811653E1,2.4204091E2,5.830819E2,4.6703056E1,1.232066E2,4.1097725E1,9.380453E1,3.644697E2,4.8623178E2,1.6287833E2,2.0347686E0,4.9798717E1,1.6509535E1,4.64683E0,2.2872125E2,6.2160673E0,1.6413498E0,5.6622906E1,8.515294E1,1.7129608E1,5.460082E0,8.224985E0],"tree_param":{"num_deleted":"0","num_feature":"17","num_nodes":"73","size_leaf_vector":"0"}},{"base_weights":[6.370114E-3,-2.3818548E-1,1.0196495E0,-5.022104E-1,6.5891224E-1,7.1714394E-2,1.3440151E0,1.6671884E-1,-6.738969E-1,5.1083595E-1,1.1410439E0,1.3239651E0,-9.347758E-2,1.0150386E0,-9.014387E-2,-9.36818E-1,-4.8787957E-1,2.882506E-1,1.167063E0,6.7179275E-1,1.2298346E0,-4.4934794E-1,5.0429446E-1,-1.4729188E-1,1.3562127E0,-5.606646E-1,2.6247704E-1,-8.624696E-1,-1.3632438E0,-3.4027404E-1,-8.212172E-1,8.564286E-1,-1.724861E-1,1.2088943E0,-7.385887E-2,1.3237414E0,-5.507984E-1,1.2597406E0,2.3175324E-1,-2.758301E-1,-1.2018692E0,3.1980693E-1,1.1867187E0,3.4127314E-2,-1.2005109E0,-6.898932E-1,6.43181E-1,-4.0161648E-1,5.307298E-1,-7.687636E-1,-1.1940515E0,-4.300366E-1,3.0717954E-1,-9.315635E-1,-2.713822E-1,-5.569421E-1,1.2659014E0,8.4318733E-1,-4.0108916E-1,8.527261E-1,1.2916983E0,-1.1595149E0,5.491533E-1,1.3439113E0,2.6322547E-1,-2.100686E0,-2.105052E-1,1.042484E0,1.4140592E0,-7.6129675E-1,1.1109866E0,6.54534E-1,-4.1439718E-1,-1.2741654E0,-7.944549E-2,-8.719075E-3,1.1060008E0,-3.8215342E-1,1.2922182E0],"categories":[],"categories_nodes":[],"categories_segments":[],"categories_sizes":[],"default_left":[true,true,true,true,true,true,false,true,true,true,true,false,true,true,true,true,true,true,true,true,true,true,true,true,false,true,true,true,false,true,true,true,true,true,true,true,true,true,true,true,true,true,true,false,false,false,false,false,false,false,false,false,false,false,false,false,false,false,false,false,false,false,false,false,false,false,false,false,false,false,false,false,false,false,false,false,false,false,false],"id":2,"left_children":[1,3,5,7,9,11,-1,13,15,17,19,-1,21,23,25,27,29,31,33,35,37,39,41,43,-1,45,47,49,-1,51,53,55,57,59,61,63,65,67,69,71,73,75,77,-1,-1,-1,-1,-1,-1,-1,-1,-1,-1,-1,-1,-1,-1,-1,-1,-1,-1,-1,-1,-1,-1,-1,-1,-1,-1,-1,-1,-1,-1,-1,-1,-1,-1,-1,-1],"loss_changes":[2.2095889E3,1.7016906E3,5.329584E2,6.3754456E2,1.16056274E2,9.177122E1,0E0,2.4727756E2,2.155653E2,1.8249655E2,1.5134399E1,0E0,8.368856E1,1.04785E2,1.4476889E2,5.6812866E1,1.2709888E2,2.4517563E2,1.6529236E1,5.1067356E1,9.286896E0,3.185004E1,1.8112503E1,1.1648373E1,0E0,5.8584435E1,8.909594E1,4.7560303E1,0E0,1.04511826E2,4.791101E1,2.4336972E2,1.20542015E2,7.9359436E0,8.25975E0,5.3359985E-1,1.1514693E1,8.964508E0,1.0067198E1,2.6257978E1,3.6220093E0,3.0226784E1,5.606369E0,0E0,0E0,0E0,0E0,0E0,0E0,0E0,0E0,0E0,0E0,0E0,0E0,0E0,0E0,0E0,0E0,0E0,0E0,0E0,0E0,0E0,0E0,0E0,0E0,0E0,0E0,0E0,0E0,0E0,0E0,0E0,0E0,0E0,0E0,0E0,0E0],"parents":[2147483647,0,0,1,1,2,2,3,3,4,4,5,5,7,7,8,8,9,9,10,10,12,12,13,13,14,14,15,15,16,16,17,17,18,18,19,19,20,20,21,21,22,22,23,23,25,25,26,26,27,27,29,29,30,30,31,31,32,32,33,33,34,34,35,35,36,36,37,37,38,38,39,39,40,40,41,41,42,42],"right_children":[2,4,6,8,10,12,-1,14,16,18,20,-1,22,24,26,28,30,32,34,36,38,40,42,44,-1,46,48,50,-1,52,54,56,58,60,62,64,66,68,70,72,74,76,78,-1,-1,-1,-1,-1,-1,-1,-1,-1,-1,-1,-1,-1,-1,-1,-1,-1,-1,-1,-1,-1,-1,-1,-1,-1,-1,-1,-1,-1,-1,-1,-1,-1,-1,-1,-1],"split_conditions":[3.05E-1,1.4365E1,5E-1,3.4721E4,5E-1,1.99E4,4.0320456E-1,1.9984E4,1.0375E1,5E-1,1.4809999E1,3.9718953E-1,1.3085E1,1.55E-1,2.8984E4,5E-1,7.99935E4,2.5E0,5E-1,1.4629999E1,5E-1,5E-1,5E-1,5E-1,4.0686384E-1,5E-1,9.895E0,8.8164E4,-4.0897316E-1,5E-1,1.95E-1,5E-1,3.49E4,1.4809999E1,5.3E4,4.9E1,6.5E-2,5.05E4,1.614E1,2.958E4,5E-1,5E-1,1.0375E4,1.0238195E-2,-3.6015326E-1,-2.0696796E-1,1.9295432E-1,-1.2048495E-1,1.5921894E-1,-2.3062909E-1,-3.5821545E-1,-1.2901099E-1,9.215386E-2,-2.7946907E-1,-8.141467E-2,-1.6708264E-1,3.7977046E-1,2.529562E-1,-1.2032675E-1,2.5581783E-1,3.8750952E-1,-3.478545E-1,1.64746E-1,4.0317342E-1,7.8967646E-2,-6.3020587E-1,-6.315156E-2,3.127452E-1,4.2421776E-1,-2.2838904E-1,3.33296E-1,1.963602E-1,-1.2431916E-1,-3.8224962E-1,-2.3833647E-2,-2.6157224E-3,3.3180025E-1,-1.1464603E-1,3.8766548E-1],"split_indices":[5,4,10,1,14,1,0,1,4,11,4,0,4,5,1,16,1,2,9,4,9,9,11,16,0,13,4,1,0,13,5,10,1,4,1,0,5,1,4,1,6,14,3,0,0,0,0,0,0,0,0,0,0,0,0,0,0,0,0,0,0,0,0,0,0,0,0,0,0,0,0,0,0,0,0,0,0,0,0],"split_type":[0,0,0,0,0,0,0,0,0,0,0,0,0,0,0,0,0,0,0,0,0,0,0,0,0,0,0,0,0,0,0,0,0,0,0,0,0,0,0,0,0,0,0,0,0,0,0,0,0,0,0,0,0,0,0,0,0,0,0,0,0,0,0,0,0,0,0,0,0,0,0,0,0,0,0,0,0,0,0],"sum_hessian":[8.914731E3,7.1820933E3,1.7326377E3,5.5493145E3,1.6327789E3,4.420372E2,1.2906006E3,1.1333925E3,4.415922E3,1.25071E3,3.8206885E2,5.0698505E1,3.9133868E2,2.6273315E2,8.706593E2,1.8280616E3,2.5878604E3,9.3500525E2,3.1570477E2,6.2154358E1,3.199145E2,2.4545863E2,1.4588007E2,5.9748158E1,2.02985E2,3.7272397E2,4.979353E2,1.5592289E3,2.6883286E2,1.7950245E3,7.9283575E2,4.1830048E2,5.167048E2,3.0543445E2,1.0270341E1,4.048365E1,2.1670708E1,3.103531E2,9.56141E0,2.0057597E2,4.4882656E1,1.1599141E2,2.9888653E1,5.179411E1,7.9540486E0,3.3697754E2,3.574642E1,1.4312187E2,3.5481342E2,1.2182627E3,3.4096613E2,1.5767594E3,2.1826515E2,6.5973865E2,1.3309714E2,9.3883644E1,3.244168E2,9.4436966E1,4.222678E2,5.974583E1,2.4568861E2,3.4307683E0,6.8395724E0,3.946583E1,1.0178193E0,2.9700875E0,1.870062E1,1.3211343E2,1.7823965E2,4.5530753E0,5.0083346E0,2.551826E1,1.7505771E2,4.2039658E1,2.8429973E0,8.2504326E1,3.3487083E1,1.7180077E0,2.8170645E1],"tree_param":{"num_deleted":"0","num_feature":"17","num_nodes":"79","size_leaf_vector":"0"}},{"base_weights":[1.0983481E-2,-1.8051472E-1,8.942475E-1,-4.0870953E-1,4.659506E-1,5.9241492E-2,1.229365E0,8.5122913E-1,-4.649525E-1,5.608771E-1,-1.5679102E-2,1.2057056E0,-6.867332E-2,-1.4834748E-1,1.2220646E0,-5.472569E-1,7.923942E-2,6.644543E-1,8.829832E-2,-1.8468523E-1,6.9527E-1,-6.676981E-1,1.9323096E-1,8.939375E-1,-3.1568044E-1,-4.5401257E-1,-1.1196535E0,5.7689744E-1,-1.6564177E-1,7.940352E-1,2.1098736E-1,6.63583E-1,-3.2854688E-1,4.515517E-2,-9.5566976E-1,9.9976283E-1,1.22161046E-1,-5.2284056E-1,-1.34948E0,3.3054927E-1,-6.24284E-1,3.4328994E-1,1.5040143E0,-7.992013E-1,1.6510922E-1,-2.7825192E-1,-6.717374E-1,-1.2240129E0,-1.4424133E-1,7.606642E-1,-6.611787E-1,-1.04015894E-1,-1.3285306E0,4.1720128E-1,9.596023E-1,6.925881E-1,-1.633038E-1,-3.439077E-1,1.0353185E0,3.8575196E-1,-6.756116E-1,1.2817678E0,-6.685473E-2,-1.1554757E0,6.792347E-1,1.886343E-1,1.1726972E0,-5.0224954E-1,1.5013657E0,-6.1706144E-1,4.9333674E-1,8.780026E-1,1.6844177E-1,-9.723446E-1,8.3148724E-1],"categories":[],"categories_nodes":[],"categories_segments":[],"categories_sizes":[],"default_left":[true,true,true,true,true,true,false,true,true,true,true,false,true,true,false,true,true,true,true,true,true,true,true,true,true,true,true,true,true,true,true,true,true,true,true,true,true,true,false,true,true,false,false,false,false,false,false,false,false,false,false,false,false,false,false,false,false,false,false,false,false,false,false,false,false,false,false,false,false,false,false,false,false,false,false],"id":3,"left_children":[1,3,5,7,9,11,-1,13,15,17,19,-1,21,23,-1,25,27,29,31,33,35,37,39,41,43,45,47,49,51,53,55,57,59,61,63,65,67,69,-1,71,73,-1,-1,-1,-1,-1,-1,-1,-1,-1,-1,-1,-1,-1,-1,-1,-1,-1,-1,-1,-1,-1,-1,-1,-1,-1,-1,-1,-1,-1,-1,-1,-1,-1,-1],"loss_changes":[1.3719783E3,9.83577E2,4.043452E2,3.495713E2,7.954358E1,6.093713E1,0E0,7.836278E1,2.113407E2,7.107492E1,3.465993E1,0E0,5.884532E1,1.0391887E1,0E0,2.182102E2,7.5730354E1,6.986517E1,6.3144073E1,4.13289E1,9.546812E0,1.0560925E1,2.9526386E1,2.265133E0,1.1914994E1,1.3472803E2,5.8188293E1,4.7121483E1,2.972654E1,5.7410645E1,4.8105804E1,4.177098E1,3.814695E1,2.5078218E1,1.827779E1,4.8347244E0,1.8290668E1,9.46913E0,0E0,1.9755476E1,2.0016102E1,0E0,0E0,0E0,0E0,0E0,0E0,0E0,0E0,0E0,0E0,0E0,0E0,0E0,0E0,0E0,0E0,0E0,0E0,0E0,0E0,0E0,0E0,0E0,0E0,0E0,0E0,0E0,0E0,0E0,0E0,0E0,0E0,0E0,0E0],"parents":[2147483647,0,0,1,1,2,2,3,3,4,4,5,5,7,7,8,8,9,9,10,10,12,12,13,13,15,15,16,16,17,17,18,18,19,19,20,20,21,21,22,22,23,23,24,24,25,25,26,26,27,27,28,28,29,29,30,30,31,31,32,32,33,33,34,34,35,35,36,36,37,37,39,39,40,40],"right_children":[2,4,6,8,10,12,-1,14,16,18,20,-1,22,24,-1,26,28,30,32,34,36,38,40,42,44,46,48,50,52,54,56,58,60,62,64,66,68,70,-1,72,74,-1,-1,-1,-1,-1,-1,-1,-1,-1,-1,-1,-1,-1,-1,-1,-1,-1,-1,-1,-1,-1,-1,-1,-1,-1,-1,-1,-1,-1,-1,-1,-1,-1,-1],"split_conditions":[3.05E-1,1.3985E1,5E-1,1.9984E4,5E-1,1.99E4,3.6880952E-1,1.55E-1,5E-1,5E-1,1.6855E1,3.617117E-1,1.068E1,1.089E4,3.666194E-1,5E-1,1.251E1,5E-1,2.5E0,7.675E4,4.5E0,5E-1,5E-1,5E-1,1.7448E4,5.96615E4,1.282E1,5E-1,5E-1,1.4805E1,2.5E0,5E-1,4.47E4,1.96E4,3.85E1,1.723E1,1.44E5,5.05E-1,-4.0484402E-1,3.416E4,1.7314999E1,1.02986984E-1,4.512043E-1,-2.397604E-1,4.9532767E-2,-8.3475575E-2,-2.0152122E-1,-3.6720386E-1,-4.3272402E-2,2.2819927E-1,-1.9835362E-1,-3.120477E-2,-3.9855918E-1,1.251604E-1,2.878807E-1,2.0777644E-1,-4.8991144E-2,-1.0317232E-1,3.1059557E-1,1.1572559E-1,-2.026835E-1,3.8453037E-1,-2.005642E-2,-3.4664273E-1,2.0377041E-1,5.6590293E-2,3.5180917E-1,-1.5067486E-1,4.504097E-1,-1.8511844E-1,1.4800103E-1,2.634008E-1,5.0532535E-2,-2.9170337E-1,2.4944618E-1],"split_indices":[5,4,10,1,12,1,0,5,6,16,4,0,4,1,0,16,4,15,2,1,2,16,9,15,1,1,4,12,9,4,2,10,1,1,0,4,1,5,0,1,4,0,0,0,0,0,0,0,0,0,0,0,0,0,0,0,0,0,0,0,0,0,0,0,0,0,0,0,0,0,0,0,0,0,0],"split_type":[0,0,0,0,0,0,0,0,0,0,0,0,0,0,0,0,0,0,0,0,0,0,0,0,0,0,0,0,0,0,0,0,0,0,0,0,0,0,0,0,0,0,0,0,0,0,0,0,0,0,0,0,0,0,0,0,0,0,0,0,0,0,0,0,0,0,0,0,0,0,0,0,0,0,0],"sum_hessian":[8.109375E3,6.665122E3,1.4442524E3,4.926494E3,1.7386279E3,4.1396375E2,1.0302887E3,2.0991457E2,4.7165796E3,1.4522358E3,2.863921E2,4.070556E1,3.7325818E2,5.696553E1,1.5294904E2,4.0969463E3,6.1963354E2,1.1908303E3,2.6140552E2,2.3198506E2,5.4407032E1,1.1307799E2,2.601802E2,7.279659E0,4.9685875E1,3.52458E3,5.723663E2,2.0390112E2,4.1573242E2,9.255872E2,2.6524316E2,1.09581314E2,1.5182419E2,1.7943471E2,5.2550358E1,3.5043804E1,1.9363228E1,9.471983E1,1.8358154E1,2.2327267E2,3.6907528E1,4.647544E0,2.632115E0,2.4442377E1,2.5243496E1,1.9514937E3,1.5730863E3,5.1681714E2,5.554913E1,1.7788359E2,2.6017527E1,3.9584454E2,1.9887852E1,2.836086E2,6.419786E2,1.15621925E2,1.4962123E2,2.9555048E1,8.002626E1,4.9609898E1,1.02214294E2,1.4035584E1,1.6539912E2,4.7088764E1,5.461594E0,6.5258484E0,2.8517956E1,1.376652E1,5.596708E0,8.7041985E1,7.6778507E0,5.0000336E1,1.7327234E2,3.0053993E1,6.8535366E0],"tree_param":{"num_deleted":"0","num_feature":"17","num_nodes":"75","size_leaf_vector":"0"}},{"base_weights":[1.2747298E-2,-1.3705759E-1,7.93328E-1,-3.2434025E-1,3.339773E-1,4.5068353E-2,1.1580013E0,1.1490087E-1,-4.400545E-1,3.8061994E-1,-6.698705E-1,1.1153686E0,-5.7654046E-2,7.4308574E-1,-2.5397899E-2,-7.4188E-1,-3.0794218E-1,5.759861E-1,1.2750083E-1,8.531637E-1,-9.058029E-1,-2.5675592E-1,5.3605723E-1,-1.4193298E-1,1.1494925E0,-1.427539E-1,8.9947045E-1,-8.0257374E-1,-3.0976102E-1,-2.6508415E-1,-1.2693598E0,3.5437414E-1,8.37968E-1,-2.7584957E-2,8.2555544E-1,-8.234165E-1,1.1533121E0,-1.1467317E0,4.7964448E-1,-1.2782416E-1,-1.0902891E0,3.22391E-1,1.103333E0,2.8718647E-1,-7.4819434E-1,-2.4066505E-1,6.8930495E-1,1.151219E0,-1.4426364E0,-7.281654E-1,-1.121879E0,3.2668116E0,-5.095308E-1,-1.902742E-1,-7.614386E-1,4.1577995E-1,-4.805472E-1,1.0723164E0,6.6999805E-1,-2.3964949E-1,7.2546744E-1,-1.1788542E0,8.907062E-1,-1.2545474E0,-5.214278E-1,1.3285962E0,-7.546086E-2,1.7497157E-1,-3.442936E-1,-1.1871045E0,-1.6298865E-1,4.321892E-2,1.0784003E0,4.5799822E-1,1.188382E0],"categories":[],"categories_nodes":[],"categories_segments":[],"categories_sizes":[],"default_left":[true,true,true,true,true,true,false,true,true,true,true,false,true,true,true,true,true,true,true,true,true,true,true,true,false,true,true,true,true,true,false,true,true,true,true,false,false,true,true,true,true,true,true,false,false,false,false,false,false,false,false,false,false,false,false,false,false,false,false,false,false,false,false,false,false,false,false,false,false,false,false,false,false,false,false],"id":4,"left_children":[1,3,5,7,9,11,-1,13,15,17,19,-1,21,23,25,27,29,31,33,35,37,39,41,43,-1,45,47,49,51,53,-1,55,57,59,61,-1,-1,63,65,67,69,71,73,-1,-1,-1,-1,-1,-1,-1,-1,-1,-1,-1,-1,-1,-1,-1,-1,-1,-1,-1,-1,-1,-1,-1,-1,-1,-1,-1,-1,-1,-1,-1,-1],"loss_changes":[8.680662E2,5.495476E2,3.261054E2,2.2658066E2,8.3240585E1,4.3239E1,0E0,8.199295E1,1.4044287E2,8.371138E1,2.9180431E1,0E0,4.260539E1,6.1250664E1,8.275603E1,2.7901611E1,1.00840515E2,5.5204346E1,8.006308E1,6.5449476E0,2.3561005E1,2.8846481E1,1.06191635E1,1.4351365E1,0E0,5.5271957E1,5.228418E1,2.1528809E1,9.727634E1,8.718872E1,0E0,2.6839844E1,1.6496979E1,9.693558E1,1.8605347E1,0E0,0E0,3.3248444E0,5.2451644E0,1.5444928E1,3.0383072E0,1.4133317E1,7.9276085E-1,0E0,0E0,0E0,0E0,0E0,0E0,0E0,0E0,0E0,0E0,0E0,0E0,0E0,0E0,0E0,0E0,0E0,0E0,0E0,0E0,0E0,0E0,0E0,0E0,0E0,0E0,0E0,0E0,0E0,0E0,0E0,0E0],"parents":[2147483647,0,0,1,1,2,2,3,3,4,4,5,5,7,7,8,8,9,9,10,10,12,12,13,13,14,14,15,15,16,16,17,17,18,18,19,19,20,20,21,21,22,22,23,23,25,25,26,26,27,27,28,28,29,29,31,31,32,32,33,33,34,34,37,37,38,38,39,39,40,40,41,41,42,42],"right_children":[2,4,6,8,10,12,-1,14,16,18,20,-1,22,24,26,28,30,32,34,36,38,40,42,44,-1,46,48,50,52,54,-1,56,58,60,62,-1,-1,64,66,68,70,72,74,-1,-1,-1,-1,-1,-1,-1,-1,-1,-1,-1,-1,-1,-1,-1,-1,-1,-1,-1,-1,-1,-1,-1,-1,-1,-1,-1,-1,-1,-1,-1,-1],"split_conditions":[3.05E-1,1.3615E1,5E-1,3.4986E4,5E-1,2.0002E4,3.474004E-1,1.9984E4,8.92E0,5.95155E4,1.96E4,3.3461058E-1,1.431E1,1.55E-1,5E-1,5E-1,5E-1,1.5295E1,5E-1,1.5E-1,1.733E1,5E-1,5E-1,1.65E3,3.4484777E-1,3.3606E4,5E-1,3.15E1,2.35E1,5E-1,-3.8080797E-1,1.5219999E1,2.5E0,5E-1,2.9E3,-2.4702495E-1,3.4599364E-1,1.6305E1,5E-1,3.9878E4,6.2626E4,5E-1,3.35E-1,8.615594E-2,-2.244583E-1,-7.2199516E-2,2.0679149E-1,3.453657E-1,-4.3279094E-1,-2.1844962E-1,-3.365637E-1,9.8004353E-1,-1.5285924E-1,-5.7082262E-2,-2.284316E-1,1.2473399E-1,-1.4416416E-1,3.2169494E-1,2.0099942E-1,-7.189485E-2,2.1764024E-1,-3.536563E-1,2.6721185E-1,-3.7636423E-1,-1.5642835E-1,3.9857888E-1,-2.2638258E-2,5.249147E-2,-1.03288084E-1,-3.5613135E-1,-4.8896596E-2,1.2965676E-2,3.235201E-1,1.3739946E-1,3.5651463E-1],"split_indices":[5,4,10,1,9,1,0,1,4,1,1,0,4,5,13,13,9,4,11,5,4,9,14,3,0,1,9,0,0,16,0,4,2,14,3,0,0,4,2,1,1,11,5,0,0,0,0,0,0,0,0,0,0,0,0,0,0,0,0,0,0,0,0,0,0,0,0,0,0,0,0,0,0,0,0],"split_type":[0,0,0,0,0,0,0,0,0,0,0,0,0,0,0,0,0,0,0,0,0,0,0,0,0,0,0,0,0,0,0,0,0,0,0,0,0,0,0,0,0,0,0,0,0,0,0,0,0,0,0,0,0,0,0,0,0,0,0,0,0,0,0,0,0,0,0,0,0,0,0,0,0,0,0],"sum_hessian":[7.421576E3,6.227292E3,1.1942843E3,4.4559326E3,1.7713597E3,3.916978E2,8.025865E2,9.2911194E2,3.5268206E3,1.6933032E3,7.805654E1,3.3437965E1,3.5825983E2,1.6883961E2,7.6027234E2,1.0723347E3,2.4544856E3,9.549579E2,7.383453E2,1.0118916E1,6.793762E1,2.6871384E2,8.9546005E1,5.333799E1,1.1550162E2,6.75415E2,8.485736E1,9.395167E2,1.3281802E2,2.3509604E3,1.0352529E2,5.186129E2,4.3634494E2,6.049131E2,1.3343219E2,1.2717515E0,8.847164E0,5.8020226E1,9.9173975E0,2.3371579E2,3.499804E1,6.618539E1,2.3360619E1,3.1539928E1,2.1798061E1,6.0494037E2,7.0474594E1,7.708058E1,7.776776E0,7.6461694E2,1.7489978E2,6.213946E0,1.2660408E2,2.0442385E3,3.0672192E2,4.835513E2,3.506164E1,1.7992836E2,2.564166E2,4.725279E2,1.3238521E2,3.662374E0,1.297698E2,4.8629227E1,9.390999E0,3.370026E0,6.547371E0,9.751054E1,1.3620526E2,3.1435797E1,3.5622442E0,4.9108295E1,1.707709E1,3.463722E0,1.9896898E1],"tree_param":{"num_deleted":"0","num_feature":"17","num_nodes":"75","size_leaf_vector":"0"}},{"base_weights":[1.3384735E-2,-1.0378207E-1,7.0931876E-1,-2.2852142E-1,3.4966016E-1,3.7937794E-2,1.1108469E0,7.344093E-2,-3.4798467E-1,6.472832E-1,1.8795444E-1,1.0739864E0,-3.9630875E-2,-3.0923268E-2,9.2824054E-1,-6.7296475E-1,-2.4997534E-1,-8.699223E-3,9.394901E-1,6.7507066E-2,7.729719E-1,-1.4697675E-1,7.105957E-1,-9.341056E-2,1.1227493E0,1.06295556E-1,1.5980898E0,-6.1371905E-1,-1.1182545E0,-1.2607955E0,-2.1959962E-1,-2.0782393E-1,8.728576E-1,3.9022234E-1,1.0627829E0,-1.5962377E-1,6.797298E-1,5.3152096E-1,1.0800136E0,-3.830454E-2,-9.5663637E-1,8.6161715E-1,-3.2212588E-1,6.467128E-1,-2.0297591E-1,1.413444E0,3.6907604E-1,1.7526615E0,-2.9983568E-1,1.3650556E0,2.5012503E0,-5.2807355E-1,-9.8008543E-1,-6.573116E-1,-1.3593559E0,-8.982558E-2,-4.9197775E-1,-4.854377E-1,8.633339E-1,9.902414E-1,-1.3840817E-2,1.254438E0,-1.3047475E0,9.6447647E-1,1.1525267E0,1.2218626E0,-2.2396807E-1,3.905659E-2,7.985689E-1,6.315904E-1,-2.4189253E0,1.126205E0,3.317197E-1,1.12122096E-1,-5.1475286E-1,-1.1791965E0,-2.0070489E-1,-3.1880155E-2,9.662915E-1,-1.1747527E0,5.557914E-1],"categories":[],"categories_nodes":[],"categories_segments":[],"categories_sizes":[],"default_left":[true,true,true,true,true,true,false,true,true,true,true,false,true,true,true,true,true,true,true,true,true,true,true,true,true,true,true,true,false,true,true,true,true,true,true,true,true,true,true,true,true,true,true,false,false,false,false,false,false,false,false,false,false,false,false,false,false,false,false,false,false,false,false,false,false,false,false,false,false,false,false,false,false,false,false,false,false,false,false,false,false],"id":5,"left_children":[1,3,5,7,9,11,-1,13,15,17,19,-1,21,23,25,27,29,31,33,35,37,39,41,43,45,47,49,51,-1,53,55,57,59,61,63,65,67,69,71,73,75,77,79,-1,-1,-1,-1,-1,-1,-1,-1,-1,-1,-1,-1,-1,-1,-1,-1,-1,-1,-1,-1,-1,-1,-1,-1,-1,-1,-1,-1,-1,-1,-1,-1,-1,-1,-1,-1,-1,-1],"loss_changes":[5.57746E2,3.312265E2,2.6566785E2,1.6567764E2,6.0686493E1,2.9770153E1,0E0,1.1623094E2,1.0463843E2,8.519153E1,5.773426E1,0E0,2.7897133E1,8.385903E1,7.788068E1,1.9412262E1,7.739534E1,2.4395796E1,2.0406372E1,9.482769E1,9.79911E0,2.660038E1,7.0416317E0,8.9578094E1,1.2573517E1,4.3803307E1,1.3009628E1,2.064978E1,0E0,3.4835587E0,8.680799E1,3.412076E1,2.6792355E0,8.6512E1,1.0985413E0,4.451017E1,1.401722E1,2.523514E1,1.7219238E0,1.9262072E1,5.7834816E0,3.5949745E0,5.3394785E0,0E0,0E0,0E0,0E0,0E0,0E0,0E0,0E0,0E0,0E0,0E0,0E0,0E0,0E0,0E0,0E0,0E0,0E0,0E0,0E0,0E0,0E0,0E0,0E0,0E0,0E0,0E0,0E0,0E0,0E0,0E0,0E0,0E0,0E0,0E0,0E0,0E0,0E0],"parents":[2147483647,0,0,1,1,2,2,3,3,4,4,5,5,7,7,8,8,9,9,10,10,12,12,13,13,14,14,15,15,16,16,17,17,18,18,19,19,20,20,21,21,22,22,23,23,24,24,25,25,26,26,27,27,29,29,30,30,31,31,32,32,33,33,34,34,35,35,36,36,37,37,38,38,39,39,40,40,41,41,42,42],"right_children":[2,4,6,8,10,12,-1,14,16,18,20,-1,22,24,26,28,30,32,34,36,38,40,42,44,46,48,50,52,-1,54,56,58,60,62,64,66,68,70,72,74,76,78,80,-1,-1,-1,-1,-1,-1,-1,-1,-1,-1,-1,-1,-1,-1,-1,-1,-1,-1,-1,-1,-1,-1,-1,-1,-1,-1,-1,-1,-1,-1,-1,-1,-1,-1,-1,-1,-1,-1],"split_conditions":[3.05E-1,1.4365E1,5E-1,3.9936E4,2.5E0,1.99E4,3.3325407E-1,5E-1,8.434999E0,5E-1,5E-1,3.2219595E-1,1.6075E1,3.8985E4,5E-1,5E-1,4.04995E4,5E-1,1.4805E1,5E-1,1.5975E1,5E-1,5E-1,1.9984E4,3.93635E4,2.35E1,3.45E4,3.15E1,-3.3547637E-1,3.9998E4,7.99935E4,5E-1,5E-1,1.4629999E1,1.5975E1,1.96E4,3.6125E3,1.5955E1,5E-1,7.5E0,5E-1,3.55E4,3.45E-1,1.9401385E-1,-6.0892776E-2,4.2403322E-1,1.1072282E-1,5.2579844E-1,-8.995071E-2,4.095167E-1,7.503751E-1,-1.5842207E-1,-2.9402563E-1,-1.9719349E-1,-4.0780678E-1,-2.6947675E-2,-1.4759333E-1,-1.4563131E-1,2.5900018E-1,2.9707244E-1,-4.1522454E-3,3.7633142E-1,-3.9142427E-1,2.8934294E-1,3.4575802E-1,3.665588E-1,-6.719042E-2,1.1716978E-2,2.3957068E-1,1.8947713E-1,-7.256776E-1,3.378615E-1,9.9515915E-2,3.363663E-2,-1.5442586E-1,-3.5375896E-1,-6.021147E-2,-9.564047E-3,2.8988746E-1,-3.524258E-1,1.6673742E-1],"split_indices":[5,4,10,1,2,1,0,13,4,10,11,0,4,1,10,16,1,14,4,14,4,9,16,1,1,0,1,0,0,1,1,11,9,4,4,1,3,4,9,7,14,1,5,0,0,0,0,0,0,0,0,0,0,0,0,0,0,0,0,0,0,0,0,0,0,0,0,0,0,0,0,0,0,0,0,0,0,0,0,0,0],"split_type":[0,0,0,0,0,0,0,0,0,0,0,0,0,0,0,0,0,0,0,0,0,0,0,0,0,0,0,0,0,0,0,0,0,0,0,0,0,0,0,0,0,0,0,0,0,0,0,0,0,0,0,0,0,0,0,0,0,0,0,0,0,0,0,0,0,0,0,0,0,0,0,0,0,0,0,0,0,0,0,0,0],"sum_hessian":[6.8382188E3,5.8535684E3,9.8465045E2,4.5910835E3,1.2624846E3,3.689076E2,6.1574286E2,1.3015626E3,3.289521E3,4.4339792E2,8.1908673E2,2.4801388E1,3.441062E2,1.1608019E3,1.407608E2,7.608436E2,2.5286772E3,1.3694254E2,3.0645538E2,6.801651E2,1.3892162E2,3.0173645E2,4.2369755E1,1.1020308E3,5.8771137E1,6.3725048E1,7.703575E1,6.735996E2,8.724401E1,7.258959E1,2.4560876E3,1.12333145E2,2.4609386E1,5.6942482E1,2.495129E2,4.9665024E2,1.8351488E2,7.929604E1,5.9625584E1,2.6695337E2,3.4783073E1,3.7108784E1,5.260971E0,1.4147209E2,9.605586E2,4.1780743E1,1.6990395E1,1.1953343E1,5.1771706E1,6.3232E1,1.3803754E1,5.4794727E2,1.2565233E2,1.1267571E1,6.1322018E1,1.6644117E3,7.9167596E2,8.9646194E1,2.2686945E1,2.1629263E1,2.9801223E0,3.7885616E1,1.9056866E1,1.2468187E2,1.2483103E2,2.1302008E1,4.7534824E2,2.8922014E1,1.5459286E2,7.7454956E1,1.8410839E0,5.5683285E1,3.9422972E0,2.034757E2,6.3477684E1,2.6439016E1,8.344057E0,3.9643795E0,3.3144405E1,2.4974005E0,2.7635703E0],"tree_param":{"num_deleted":"0","num_feature":"17","num_nodes":"81","size_leaf_vector":"0"}},{"base_weights":[1.5032945E-2,-1.0989124E-1,4.635926E-1,-3.7500915E-1,2.252804E-2,4.6075977E-2,7.5520104E-1,-2.9412454E-1,-1.093679E0,6.0499903E-2,-8.853647E-1,1.0855718E0,-1.5131389E-2,3.1759953E-1,1.0784184E0,-5.821879E-1,-1.716996E-1,1.06005535E-1,-1.1442239E0,4.46379E-1,-3.368074E-2,4.1157523E-1,-1.0131452E0,7.9497755E-2,-7.957131E-1,1.8392535E-1,1.194011E0,-6.7334163E-1,-7.8515835E-2,2.2046058E-1,-2.782465E-1,-1.0651295E0,8.81448E-1,3.5884282E-1,1.121762E0,-1.24992296E-1,2.5037062E-1,-1.0786381E0,1.0121714E0,-1.1321208E0,3.8094342E-1,-3.5004103E-1,2.1028733E-1,-9.164084E-1,9.809425E-1,3.5486884E-2,1.0208201E0,5.070827E-1,1.4170357E0,-5.0206167E-1,-9.1611326E-1,1.7461652E0,-2.5388223E-1,5.052447E-1,-1.0587621E-1,-5.1763624E-1,-9.914342E-2,1.3734788E-1,5.7527477E-1,1.1800313E0,4.4629676E-3,3.1276733E-2,-2.5157475E-1,1.3329352E-1,7.650895E-1,-1.1730932E0,-4.7140244E-1,9.475677E-1,-2.9176134E-1,-1.5464753E-1,-9.526866E-1,6.244541E-1,1.1559552E-1,-1.0589137E0,3.818574E-1,3.5619214E-1,-2.8919652E-1,1.1822783E0,-8.483753E-2,1.4169239E0,-1.0895927E0,1.9763818E0,9.134114E-1],"categories":[],"categories_nodes":[],"categories_segments":[],"categories_sizes":[],"default_left":[true,true,true,true,true,true,true,true,true,true,true,false,true,true,false,true,true,true,false,true,true,true,true,true,true,true,true,true,true,true,true,false,false,true,true,true,true,false,false,true,true,true,true,true,false,true,true,true,true,false,false,false,false,false,false,false,false,false,false,false,false,false,false,false,false,false,false,false,false,false,false,false,false,false,false,false,false,false,false,false,false,false,false],"id":6,"left_children":[1,3,5,7,9,11,13,15,17,19,21,-1,23,25,-1,27,29,31,-1,33,35,37,39,41,43,45,47,49,51,53,55,-1,-1,57,59,61,63,-1,-1,65,67,69,71,73,-1,75,77,79,81,-1,-1,-1,-1,-1,-1,-1,-1,-1,-1,-1,-1,-1,-1,-1,-1,-1,-1,-1,-1,-1,-1,-1,-1,-1,-1,-1,-1,-1,-1,-1,-1,-1,-1],"loss_changes":[3.5636963E2,1.7464363E2,1.6863263E2,9.600023E1,1.1445269E2,3.6330257E1,1.1501532E2,5.2473633E1,1.0263641E1,1.15805374E2,2.2504753E1,0E0,3.9950623E1,4.0538647E1,0E0,2.0340652E1,4.383267E1,7.910993E0,0E0,3.6555794E1,6.64814E1,1.2426988E1,2.0602821E1,2.7181292E1,1.343824E1,3.7610268E1,6.3071976E0,1.5174438E1,2.258707E1,2.0905298E1,3.5286915E1,0E0,0E0,2.652111E1,4.6338425E0,3.8371025E1,3.747496E1,0E0,0E0,2.4872284E0,4.2067814E0,1.3159182E1,1.4458872E1,1.0630478E1,0E0,2.701251E1,8.243748E0,2.0134573E1,7.7900925E0,0E0,0E0,0E0,0E0,0E0,0E0,0E0,0E0,0E0,0E0,0E0,0E0,0E0,0E0,0E0,0E0,0E0,0E0,0E0,0E0,0E0,0E0,0E0,0E0,0E0,0E0,0E0,0E0,0E0,0E0,0E0,0E0,0E0,0E0],"parents":[2147483647,0,0,1,1,2,2,3,3,4,4,5,5,6,6,7,7,8,8,9,9,10,10,12,12,13,13,15,15,16,16,17,17,19,19,20,20,21,21,22,22,23,23,24,24,25,25,26,26,27,27,28,28,29,29,30,30,33,33,34,34,35,35,36,36,39,39,40,40,41,41,42,42,43,43,45,45,46,46,47,47,48,48],"right_children":[2,4,6,8,10,12,14,16,18,20,22,-1,24,26,-1,28,30,32,-1,34,36,38,40,42,44,46,48,50,52,54,56,-1,-1,58,60,62,64,-1,-1,66,68,70,72,74,-1,76,78,80,82,-1,-1,-1,-1,-1,-1,-1,-1,-1,-1,-1,-1,-1,-1,-1,-1,-1,-1,-1,-1,-1,-1,-1,-1,-1,-1,-1,-1,-1,-1,-1,-1,-1,-1],"split_conditions":[2.55E-1,1.0764999E1,5E-1,5E-1,5E-1,1.99E4,3.05E-1,7.46E0,1.96E4,3.459E4,1.96E4,3.2567155E-1,5E-1,5E-1,3.2352552E-1,5E-1,3.55E3,1.55E-1,-3.432672E-1,5E-1,1.4825E1,1.55E-1,1.7265E1,1.0225E1,1.8505001E1,1.98E4,1.166E1,5.922E4,2.35E1,2.55E1,3.5E0,-3.1953886E-1,2.644344E-1,1.55E-1,1.35E1,5.96365E4,5E-1,-3.2359144E-1,3.0365142E-1,1.6305E1,7.0375E3,5.445E4,1.5E0,4.95E-1,2.9428276E-1,3.48975E4,8.8298E4,5.8752E4,1.3415E1,-1.5061851E-1,-2.7483398E-1,5.2384955E-1,-7.616467E-2,1.515734E-1,-3.1762864E-2,-1.5529087E-1,-2.9743029E-2,4.1204363E-2,1.7258243E-1,3.540094E-1,1.3388903E-3,9.38302E-3,-7.547243E-2,3.998806E-2,2.2952686E-1,-3.5192797E-1,-1.4142074E-1,2.8427032E-1,-8.752841E-2,-4.639426E-2,-2.85806E-1,1.8733624E-1,3.4678657E-2,-3.1767413E-1,1.1455722E-1,1.0685765E-1,-8.675896E-2,3.546835E-1,-2.5451262E-2,4.2507717E-1,-3.2687783E-1,5.929146E-1,2.740234E-1],"split_indices":[5,4,10,16,9,1,5,4,1,1,1,0,9,13,0,13,3,5,0,13,4,5,4,4,4,3,4,1,0,0,2,0,0,5,7,1,14,0,0,4,3,1,2,5,0,1,1,1,4,0,0,0,0,0,0,0,0,0,0,0,0,0,0,0,0,0,0,0,0,0,0,0,0,0,0,0,0,0,0,0,0,0,0],"split_type":[0,0,0,0,0,0,0,0,0,0,0,0,0,0,0,0,0,0,0,0,0,0,0,0,0,0,0,0,0,0,0,0,0,0,0,0,0,0,0,0,0,0,0,0,0,0,0,0,0,0,0,0,0,0,0,0,0,0,0,0,0,0,0,0,0,0,0,0,0,0,0,0,0,0,0,0,0,0,0,0,0,0,0],"sum_hessian":[6.3577515E3,4.9734087E3,1.3843429E3,1.6560277E3,3.3173809E3,5.697497E2,8.145932E2,1.4897672E3,1.6626056E2,3.1851E3,1.322808E2,3.0751717E1,5.389979E2,3.4690445E2,4.6768875E2,4.4319147E2,1.0465757E3,6.6773148E0,1.5958324E2,6.24136E2,2.560964E3,1.1664819E1,1.2061599E2,4.8152173E2,5.747624E1,3.0204507E2,4.4859398E1,3.749896E2,6.820187E1,2.2336853E2,8.232072E2,2.5111694E0,4.1661453E0,5.538792E2,7.025679E1,1.9384023E3,6.2256165E2,3.1221418E0,8.542677E0,1.1130482E2,9.311171E0,1.1200356E2,3.6951816E2,5.4273422E1,3.2028165E0,2.5742795E2,4.461711E1,1.1797161E1,3.3062237E1,2.2166725E2,1.5332236E2,5.1946354E0,6.300724E1,1.18985405E2,1.0438313E2,3.5150043E2,4.717068E2,2.745457E2,2.793335E2,6.672102E1,3.5357687E0,8.678159E2,1.0705864E3,5.082214E2,1.14340225E2,1.0407543E2,7.2293906E0,4.832297E0,4.4788733E0,8.552932E1,2.6474236E1,6.772134E1,3.017968E2,4.907142E1,5.202004E0,1.2945854E2,1.2796941E2,3.8871452E1,5.7456594E0,7.5866194E0,4.2105412E0,1.4279033E1,1.8783205E1],"tree_param":{"num_deleted":"0","num_feature":"17","num_nodes":"83","size_leaf_vector":"0"}},{"base_weights":[1.2259191E-2,-5.7135213E-2,5.447522E-1,-2.4238579E-2,-8.4750015E-1,1.0960512E-2,1.0554204E0,-8.3241306E-2,3.8336137E-1,5.778266E-1,-1.0247025E0,-2.6216066E-2,1.3214298E0,-3.391431E-2,-4.6757296E-1,2.8854823E-1,9.650097E-1,-1.1300166E0,1.0482464E0,-1.1371745E0,2.1231955E-2,9.6826446E-1,-7.741291E-2,2.1644097E-2,-3.442049E-1,-1.0476083E0,-2.7384925E-1,6.8001854E-1,1.0848829E-1,6.9849133E-1,1.0898938E0,-1.1578072E0,-5.001141E-1,1.0480734E0,-3.6372367E-1,2.6525676E-1,1.025059E0,-2.399223E-1,3.262691E-1,-3.8384687E-2,3.975532E-1,-8.000712E-1,-2.3314989E-1,2.233496E-1,-1.1146425E0,6.997544E-2,-4.844615E-1,3.3185378E-2,1.0015613E0,-6.006154E-2,7.1739167E-1,1.0896882E0,-1.695473E0,9.1630644E-1,-9.5612E-1,1.5029918E-1,1.2508092E0,-1.4742324E0,2.951214E-1,-1.3934745E-1,-1.3233161E0,6.613535E-1,-4.3093058E-1],"categories":[],"categories_nodes":[],"categories_segments":[],"categories_sizes":[],"default_left":[true,true,true,true,true,true,false,true,true,true,true,true,false,true,true,true,true,false,false,true,true,true,true,true,true,true,true,true,true,true,false,false,true,true,true,false,false,true,true,false,false,false,false,false,false,false,false,false,false,false,false,false,false,false,false,false,false,false,false,false,false,false,false],"id":7,"left_children":[1,3,5,7,9,11,-1,13,15,17,19,21,-1,23,25,27,29,-1,-1,31,33,35,37,39,41,43,45,47,49,51,-1,-1,53,55,57,-1,-1,59,61,-1,-1,-1,-1,-1,-1,-1,-1,-1,-1,-1,-1,-1,-1,-1,-1,-1,-1,-1,-1,-1,-1,-1,-1],"loss_changes":[2.219041E2,1.3811891E2,1.8872037E2,1.2272563E2,5.420584E1,1.6576054E1,0E0,8.448749E1,3.530844E1,2.0555975E1,2.2276611E1,1.6934843E1,0E0,6.8128E1,5.6675735E1,3.913738E1,2.2349014E0,0E0,0E0,1.6661682E0,8.029089E0,3.783846E-1,2.079909E1,7.5662094E1,3.0196152E1,1.1032074E1,2.7650278E1,3.6377716E1,3.9269993E1,3.1353966E1,0E0,0E0,5.474242E0,8.1909895E-1,1.1274112E1,0E0,0E0,2.441648E1,2.3394676E1,0E0,0E0,0E0,0E0,0E0,0E0,0E0,0E0,0E0,0E0,0E0,0E0,0E0,0E0,0E0,0E0,0E0,0E0,0E0,0E0,0E0,0E0,0E0,0E0],"parents":[2147483647,0,0,1,1,2,2,3,3,4,4,5,5,7,7,8,8,9,9,10,10,11,11,13,13,14,14,15,15,16,16,19,19,20,20,21,21,22,22,23,23,24,24,25,25,26,26,27,27,28,28,29,29,32,32,33,33,34,34,37,37,38,38],"right_children":[2,4,6,8,10,12,-1,14,16,18,20,22,-1,24,26,28,30,-1,-1,32,34,36,38,40,42,44,46,48,50,52,-1,-1,54,56,58,-1,-1,60,62,-1,-1,-1,-1,-1,-1,-1,-1,-1,-1,-1,-1,-1,-1,-1,-1,-1,-1,-1,-1,-1,-1,-1,-1],"split_conditions":[3.05E-1,5E-1,5E-1,1.5275E1,1.95E4,5E-1,3.1662613E-1,5E-1,5E-1,1.55E-1,1.6305E1,2.0002E4,3.9642897E-1,8.9325E4,1.0969999E1,2.5E0,1.5975E1,-3.39005E-1,3.1447393E-1,2.2175E4,1.6470001E1,5.89E0,2.34125E4,5E-1,8.889999E0,1.96E4,2.5E0,5E-1,5E-1,1.5955E1,3.2696816E-1,-3.473422E-1,2.325E4,5E0,1.733E1,7.957703E-2,3.075177E-1,5.96085E4,7.45E4,-1.1515407E-2,1.19265966E-1,-2.4002136E-1,-6.994497E-2,6.700488E-2,-3.3439276E-1,2.0992633E-2,-1.4533845E-1,9.955614E-3,3.004684E-1,-1.8018464E-2,2.1521752E-1,3.2690647E-1,-5.086419E-1,2.7489194E-1,-2.8683603E-1,4.5089755E-2,3.7524277E-1,-4.4226974E-1,8.853643E-2,-4.1804235E-2,-3.9699486E-1,1.9840607E-1,-1.2927918E-1],"split_indices":[5,9,10,4,1,8,0,16,11,5,4,1,0,1,4,2,4,0,0,3,4,4,3,13,4,1,2,10,14,4,0,0,3,2,4,0,0,1,1,0,0,0,0,0,0,0,0,0,0,0,0,0,0,0,0,0,0,0,0,0,0,0,0],"split_type":[0,0,0,0,0,0,0,0,0,0,0,0,0,0,0,0,0,0,0,0,0,0,0,0,0,0,0,0,0,0,0,0,0,0,0,0,0,0,0,0,0,0,0,0,0,0,0,0,0,0,0,0,0,0,0,0,0,0,0,0,0,0,0],"sum_hessian":[6.0033506E3,5.311986E3,6.9136444E2,5.1007144E3,2.1127168E2,3.3852853E2,3.5283594E2,4.456415E3,6.4429913E2,2.3111732E1,1.8815996E2,3.3014273E2,8.385793E0,3.9504795E3,5.0593558E2,5.552803E2,8.9018845E1,4.6884227E0,1.842331E1,1.6981236E2,1.8347593E1,1.5286932E1,3.148558E2,3.3513425E3,5.991371E2,1.25566E2,3.8036957E2,1.7406564E2,3.8121466E2,3.0506754E1,5.8512096E1,1.6369334E2,6.119014E0,4.5331526E0,1.3814442E1,1.5665467E0,1.3720385E1,2.2477449E2,9.0081314E1,2.8906357E3,4.6070663E2,1.16150444E2,4.8298663E2,6.174099E0,1.193919E2,1.4474345E2,2.3562611E2,5.816366E1,1.1590199E2,2.9927426E2,8.19404E1,2.6690145E1,3.8166084E0,1.2443777E0,4.8746357E0,1.1558886E0,3.3772638E0,4.6831727E0,9.131269E0,2.0671327E2,1.8061218E1,6.2534454E1,2.7546862E1],"tree_param":{"num_deleted":"0","num_feature":"17","num_nodes":"63","size_leaf_vector":"0"}},{"base_weights":[1.0526683E-2,-6.770721E-2,3.2889205E-1,-4.214501E-2,-8.2723933E-1,3.825407E-2,5.8733153E-1,-3.6936474E-1,1.2089109E-2,3.9629632E-1,-9.576479E-1,-5.8807965E-2,4.2833918E-1,2.2562869E-1,1.038639E0,-3.0820623E-1,-8.790977E-1,1.937388E-1,-8.209892E-2,-1.0110743E0,9.775858E-1,-1.0812112E0,3.3133652E-3,2.8737046E-2,-6.710049E-1,6.865659E-1,1.1710456E-1,-3.06566E-1,3.9278755E-1,-4.194538E-1,1.311292E-1,2.0798202E-1,-1.0252813E0,1.0615011E-1,1.5822079E0,-8.2559264E-1,-5.8109164E-2,-1.1086919E0,-3.0516228E-1,-3.5998598E-1,7.0605814E-1,-7.828806E-2,4.610574E-1,-7.7485645E-1,1.1149634E0,4.5570418E-1,1.2515947E0,-4.671341E-1,3.1734362E-1,9.5914614E-1,-4.5814326E-1,2.3776916E-1,7.90367E-1,-2.7100462E-1,-6.4490426E-1,2.681067E-1,-8.698266E-1,-3.2035205E-1,1.3051959E0,-1.1242347E0,-2.4629517E-1,2.1577561E-1,-4.183694E-1,1.9603215E0,1.00302E0,-1.0182089E0,-2.3547977E-1,1.0649979E0,-7.315002E-2,1.0598066E0,-8.695501E-1,7.1474934E-1,-8.596235E-1,1.1299062E0,-3.5372075E-1,9.400312E-1,-1.2341899E-1,1.2771678E0,7.3528305E-2,-2.2318208E-1,-1.0685211E0,8.3874327E-1,1.0266052E-1,-1.0158867E0,6.086412E-1,7.4207075E-2,8.4416753E-1,-1.304713E0,-3.0144483E-1,5.813199E-1,2.2317661E-2,6.777899E-1,1.3400544E0],"categories":[],"categories_nodes":[],"categories_segments":[],"categories_sizes":[],"default_left":[true,true,true,true,true,true,true,true,true,true,true,true,true,true,false,true,true,true,true,false,false,true,true,true,true,true,true,true,true,true,true,true,true,true,true,true,true,false,true,true,true,true,true,true,false,true,false,true,true,false,true,true,true,false,false,false,false,false,false,false,false,false,false,false,false,false,false,false,false,false,false,false,false,false,false,false,false,false,false,false,false,false,false,false,false,false,false,false,false,false,false,false,false],"id":8,"left_children":[1,3,5,7,9,11,13,15,17,19,21,23,25,27,-1,29,31,33,35,-1,-1,37,39,41,43,45,47,49,51,53,55,57,59,61,63,65,67,-1,69,71,73,75,77,79,-1,81,-1,83,85,-1,87,89,91,-1,-1,-1,-1,-1,-1,-1,-1,-1,-1,-1,-1,-1,-1,-1,-1,-1,-1,-1,-1,-1,-1,-1,-1,-1,-1,-1,-1,-1,-1,-1,-1,-1,-1,-1,-1,-1,-1,-1,-1],"loss_changes":[1.4276346E2,8.930085E1,8.490503E1,7.902135E1,2.4275467E1,2.021551E1,9.745108E1,1.946508E1,6.538098E1,1.3367749E1,1.610823E1,2.2951683E1,8.468414E0,2.9785715E1,0E0,2.7757408E1,1.09050865E1,1.5851883E2,4.4839046E1,0E0,0E0,2.2246704E0,4.4538884E0,1.740141E1,1.0800594E1,6.9862022E0,5.932063E0,1.5838693E1,1.547884E1,1.4969963E1,1.6039936E1,5.5231776E0,4.3076057E0,7.072881E1,1.4974777E1,8.692963E0,4.1279213E1,0E0,5.1508484E0,6.7929306E0,3.0694518E0,1.3981037E1,2.3505917E1,8.059517E0,0E0,5.6880302E0,0E0,8.306873E0,4.729927E0,0E0,9.205476E0,1.3630045E1,3.477871E0,0E0,0E0,0E0,0E0,0E0,0E0,0E0,0E0,0E0,0E0,0E0,0E0,0E0,0E0,0E0,0E0,0E0,0E0,0E0,0E0,0E0,0E0,0E0,0E0,0E0,0E0,0E0,0E0,0E0,0E0,0E0,0E0,0E0,0E0,0E0,0E0,0E0,0E0,0E0,0E0],"parents":[2147483647,0,0,1,1,2,2,3,3,4,4,5,5,6,6,7,7,8,8,9,9,10,10,11,11,12,12,13,13,15,15,16,16,17,17,18,18,21,21,22,22,23,23,24,24,25,25,26,26,27,27,28,28,29,29,30,30,31,31,32,32,33,33,34,34,35,35,36,36,38,38,39,39,40,40,41,41,42,42,43,43,45,45,47,47,48,48,50,50,51,51,52,52],"right_children":[2,4,6,8,10,12,14,16,18,20,22,24,26,28,-1,30,32,34,36,-1,-1,38,40,42,44,46,48,50,52,54,56,58,60,62,64,66,68,-1,70,72,74,76,78,80,-1,82,-1,84,86,-1,88,90,92,-1,-1,-1,-1,-1,-1,-1,-1,-1,-1,-1,-1,-1,-1,-1,-1,-1,-1,-1,-1,-1,-1,-1,-1,-1,-1,-1,-1,-1,-1,-1,-1,-1,-1,-1,-1,-1,-1,-1,-1],"split_conditions":[2.55E-1,5E-1,5E-1,7.8900003E0,1.95E4,1.524E1,3.05E-1,7.71E0,4.44235E4,1.55E-1,1.6305E1,5E-1,5.96085E4,1.0969999E1,3.1159168E-1,7.5E0,2.95E4,4.354E4,4.5948E4,-3.0332232E-1,2.9327574E-1,2.1975E4,6.5E0,5E-1,9.35E4,5.3742E4,6.805E4,1.99E4,1.59E4,5.922E4,3.35E1,2.865E4,2.15E-1,3.9936E4,1.3795E1,5.5E0,4.6001E4,-3.326076E-1,1.5E0,5E-1,1.7500001E-1,2.0002E4,1.236E1,3.425E4,3.3448905E-1,3.428E4,3.7547842E-1,5E-1,3.05E1,2.8774387E-1,7.95E3,2.35E1,5E-1,-8.130139E-2,-1.9347128E-1,8.043201E-2,-2.60948E-1,-9.610562E-2,3.915588E-1,-3.372704E-1,-7.3888555E-2,6.4732686E-2,-1.2551083E-1,5.880965E-1,3.0090603E-1,-3.0546266E-1,-7.064393E-2,3.1949937E-1,-2.1945005E-2,3.17942E-1,-2.6086503E-1,2.144248E-1,-2.5788707E-1,3.3897185E-1,-1.0611623E-1,2.8200936E-1,-3.7025698E-2,3.8315037E-1,2.2058493E-2,-6.695463E-2,-3.2055634E-1,2.51623E-1,3.0798158E-2,-3.04766E-1,1.8259236E-1,2.2262122E-2,2.5325027E-1,-3.9141393E-1,-9.043345E-2,1.7439598E-1,6.6952985E-3,2.0333698E-1,4.0201634E-1],"split_indices":[5,9,10,4,1,4,5,4,1,5,4,16,1,4,0,4,1,1,1,0,0,3,2,6,1,1,1,1,3,1,0,1,5,1,4,2,1,0,2,2,5,1,4,1,0,1,0,14,0,0,3,0,11,0,0,0,0,0,0,0,0,0,0,0,0,0,0,0,0,0,0,0,0,0,0,0,0,0,0,0,0,0,0,0,0,0,0,0,0,0,0,0,0],"split_type":[0,0,0,0,0,0,0,0,0,0,0,0,0,0,0,0,0,0,0,0,0,0,0,0,0,0,0,0,0,0,0,0,0,0,0,0,0,0,0,0,0,0,0,0,0,0,0,0,0,0,0,0,0,0,0,0,0,0,0,0,0,0,0,0,0,0,0,0,0,0,0,0,0,0,0,0,0,0,0,0,0,0,0,0,0,0,0,0,0,0,0,0,0],"sum_hessian":[5.729975E3,4.600302E3,1.1296733E3,4.4515396E3,1.4876195E2,5.3225433E2,5.9741895E2,6.320823E2,3.8194575E3,1.4132006E1,1.3462994E2,4.2688492E2,1.0536942E2,3.3246387E2,2.6495508E2,5.658013E2,6.6281006E1,1.3038378E3,2.5156196E3,3.914697E0,1.0217309E1,1.1918025E2,1.5449694E1,3.7431097E2,5.2573933E1,5.6929733E1,4.843969E1,7.9265884E1,2.5319798E2,4.515149E2,1.1428636E2,7.8064437E0,5.8474564E1,1.2274811E3,7.635664E1,7.7588E1,2.4380317E3,1.14690315E2,4.4899383E0,1.0506085E1,4.9436083E0,3.0069095E2,7.362005E1,5.021986E1,2.3540719E0,4.1698788E1,1.5230943E1,1.202408E1,3.641561E1,7.907586E0,7.13583E1,1.8331897E2,6.987902E1,2.7357797E2,1.7793695E2,1.0117328E2,1.3113079E1,5.7471085E0,2.0593352E0,5.1490597E1,6.9839673E0,1.01577167E3,2.1170943E2,4.4754665E1,3.1601978E1,5.794799E1,1.9640007E1,3.129656E1,2.406735E3,1.0566465E0,3.433292E0,3.1975415E0,7.3085437E0,3.4840326E0,1.4595755E0,1.191928E1,2.8877167E2,2.2963915E1,5.0656136E1,1.8057426E1,3.2162434E1,1.9339937E1,2.2358852E1,7.999307E0,4.024773E0,2.5696964E1,1.0718647E1,1.0001034E1,6.135726E1,7.000057E1,1.133184E2,5.9853874E1,1.00251465E1],"tree_param":{"num_deleted":"0","num_feature":"17","num_nodes":"93","size_leaf_vector":"0"}},{"base_weights":[7.791145E-3,-7.3277004E-2,2.0562913E-1,-5.431247E-2,-7.865948E-1,1.0633429E0,1.659545E-1,-1.4268772E-1,8.0493696E-2,-9.306439E-1,1.694072E-1,2.0131105E-1,-7.5937843E-1,-8.550147E-2,-7.356868E-1,2.761379E-1,-1.8266143E-2,2.0302473E-1,-1.0268016E0,-7.439838E-1,4.0307447E-1,-4.3685016E-1,2.3524156E-1,-8.616563E-1,9.7588974E-1,-1.18817486E-1,3.8964027E-1,-9.531384E-1,7.270042E-1,1.9858693E-1,1.1706103E0,-5.5532646E-1,5.7070114E-2,-8.433664E-1,8.5395867E-1,-1.0643717E0,-1.1393176E-1,-1.5507538E-2,-1.0877514E0,6.589781E-1,-6.0163593E-1,-8.256213E-1,-3.2561265E-2,4.8877403E-1,1.5276037E-1,-9.74245E-1,1.8203877E-1,-6.308498E-2,-3.619448E-1,5.509048E-1,-6.152419E-1,-6.550107E-2,-9.733089E-1,1.3250055E0,1.2970962E-1,1.09734096E-1,1.0001026E0,1.370481E-1,1.3600453E0,-2.360855E-1,-1.4258976E0,7.0700604E-1,-1.5159948E-2,-3.0234823E-1,-1.0709579E0,9.94697E-1,-7.645553E-1,1.0077169E0,-5.335575E-3,1.174344E-1,-1.1465232E0,2.4194539E-1,-1.1144929E0,4.5190293E-2,6.3656414E-1,-9.551507E-2,3.0064374E-1,-1.0673242E0,-4.179825E-1,7.9697967E-1,-7.787103E-1],"categories":[],"categories_nodes":[],"categories_segments":[],"categories_sizes":[],"default_left":[true,true,true,true,true,false,true,true,true,true,true,true,true,true,true,true,true,true,true,true,true,true,true,true,false,true,true,true,true,true,true,true,true,false,false,true,true,false,false,true,false,true,true,true,true,true,true,false,false,false,false,false,false,false,false,false,false,false,false,false,false,false,false,false,false,false,false,false,false,false,false,false,false,false,false,false,false,false,false,false,false],"id":9,"left_children":[1,3,5,7,9,-1,11,13,15,17,19,21,23,25,27,29,31,33,35,37,39,41,43,45,-1,47,49,51,53,55,57,59,61,-1,-1,63,65,-1,-1,67,-1,69,71,73,75,77,79,-1,-1,-1,-1,-1,-1,-1,-1,-1,-1,-1,-1,-1,-1,-1,-1,-1,-1,-1,-1,-1,-1,-1,-1,-1,-1,-1,-1,-1,-1,-1,-1,-1,-1],"loss_changes":[8.889564E1,5.314424E1,5.464682E1,4.5651592E1,1.4169544E1,0E0,5.0569485E1,7.841933E1,2.93281E1,9.864494E0,3.3241143E0,3.225958E1,1.0943703E1,3.3477448E1,6.5394485E1,3.5086308E1,4.0874535E1,6.0062547E0,2.6848145E0,7.939898E-1,3.4642367E0,1.1812324E1,2.9426743E1,6.556465E0,0E0,2.6729052E1,2.2801544E1,3.1147156E0,9.434635E0,3.3343616E1,7.7271194E0,3.4202286E1,4.1612534E1,0E0,0E0,6.9992065E-2,3.9010916E0,0E0,0E0,2.3190622E0,0E0,1.1742916E1,1.1545575E1,2.2643898E1,3.9164764E1,2.0991096E0,4.241364E0,0E0,0E0,0E0,0E0,0E0,0E0,0E0,0E0,0E0,0E0,0E0,0E0,0E0,0E0,0E0,0E0,0E0,0E0,0E0,0E0,0E0,0E0,0E0,0E0,0E0,0E0,0E0,0E0,0E0,0E0,0E0,0E0,0E0,0E0],"parents":[2147483647,0,0,1,1,2,2,3,3,4,4,6,6,7,7,8,8,9,9,10,10,11,11,12,12,13,13,14,14,15,15,16,16,17,17,18,18,19,19,20,20,21,21,22,22,23,23,25,25,26,26,27,27,28,28,29,29,30,30,31,31,32,32,35,35,36,36,39,39,41,41,42,42,43,43,44,44,45,45,46,46],"right_children":[2,4,6,8,10,-1,12,14,16,18,20,22,24,26,28,30,32,34,36,38,40,42,44,46,-1,48,50,52,54,56,58,60,62,-1,-1,64,66,-1,-1,68,-1,70,72,74,76,78,80,-1,-1,-1,-1,-1,-1,-1,-1,-1,-1,-1,-1,-1,-1,-1,-1,-1,-1,-1,-1,-1,-1,-1,-1,-1,-1,-1,-1,-1,-1,-1,-1,-1,-1],"split_conditions":[2.15E-1,5E-1,1.9984E4,1.2575E1,1.6305E1,3.190029E-1,5E-1,5E-1,4.44235E4,1.91E4,2.35E1,6.6125E3,1.8505001E1,5E-1,5E-1,4.3975E4,5.09555E4,1.55E-1,2.1975E4,1.5E0,2.85E1,1.142E1,3.453E4,4.95E-1,2.9276693E-1,8.3602E4,5E-1,1.59E4,5.25E4,5E-1,3.55E3,4.9839E4,5.455E4,-2.5300992E-1,2.5618762E-1,1.95E4,1.2625E5,-4.6522617E-3,-3.2632542E-1,7.5E3,-1.8049079E-1,7.7E0,4.5E0,9.995E0,1.41375E4,2.02E4,1.5E0,-1.8925495E-2,-1.0858344E-1,1.6527145E-1,-1.8457258E-1,-1.9650321E-2,-2.919927E-1,3.9750168E-1,3.8912885E-2,3.292023E-2,3.000308E-1,4.111443E-2,4.080136E-1,-7.082565E-2,-4.277693E-1,2.1210182E-1,-4.5479843E-3,-9.070447E-2,-3.212874E-1,2.984091E-1,-2.2936659E-1,3.023151E-1,-1.6006726E-3,3.523032E-2,-3.4395698E-1,7.2583616E-2,-3.3434787E-1,1.3557089E-2,1.9096924E-1,-2.8654523E-2,9.019312E-2,-3.2019725E-1,-1.2539475E-1,2.3909391E-1,-2.336131E-1],"split_indices":[5,9,1,4,4,0,9,16,1,1,0,3,4,6,6,1,1,5,3,2,0,4,1,5,0,1,12,1,1,13,3,1,1,0,0,1,1,0,0,3,0,4,2,4,3,3,2,0,0,0,0,0,0,0,0,0,0,0,0,0,0,0,0,0,0,0,0,0,0,0,0,0,0,0,0,0,0,0,0,0,0],"split_type":[0,0,0,0,0,0,0,0,0,0,0,0,0,0,0,0,0,0,0,0,0,0,0,0,0,0,0,0,0,0,0,0,0,0,0,0,0,0,0,0,0,0,0,0,0,0,0,0,0,0,0,0,0,0,0,0,0,0,0,0,0,0,0,0,0,0,0,0,0,0,0,0,0,0,0,0,0,0,0,0,0],"sum_hessian":[5.5407495E3,3.930696E3,1.6100533E3,3.8299478E3,1.0074829E2,7.0041664E1,1.5400117E3,2.3133318E3,1.516616E3,8.757859E1,1.3169701E1,1.4840879E3,5.5923855E1,2.1109092E3,2.0242273E2,5.0815665E2,1.00845935E3,6.7606964E0,8.0817894E1,2.2379084E0,1.0931792E1,7.432459E1,1.4097632E3,5.3286552E1,2.6373005E0,1.9732954E3,1.376137E2,1.7652756E2,2.5895182E1,4.6873886E2,3.9417763E1,1.2327561E2,8.851837E2,2.479392E0,4.2813044E0,7.746382E1,3.3540707E0,1.0525548E0,1.1853535E0,8.986904E0,1.9448881E0,3.7358173E1,3.696642E1,3.448451E2,1.0649182E3,4.8158043E1,5.1285095E0,1.6063325E3,3.6696292E2,1.1897261E2,1.8641077E1,4.016622E0,1.7251093E2,1.2331122E1,1.3564059E1,4.2298532E2,4.575355E1,6.372532E0,3.304523E1,9.112939E1,3.2146225E1,8.765588E1,7.9752783E2,1.0657223E0,7.63981E1,1.0448552E0,2.3092155E0,5.554224E0,3.4326804E0,9.645719E0,2.7712456E1,3.0104668E1,6.861751E0,8.650648E1,2.583386E2,3.9765887E2,6.672593E2,4.0467834E1,7.6902094E0,3.230953E0,1.8975567E0],"tree_param":{"num_deleted":"0","num_feature":"17","num_nodes":"81","size_leaf_vector":"0"}},{"base_weights":[4.5170174E-3,-1.6516881E-2,5.1888496E-1,5.7162845E-1,-3.5548117E-2,3.8670772E-1,1.1316829E0,-1.7090315E-1,1.0722129E0,-1.6768912E-2,-8.943577E-1,7.574174E-1,2.2668317E-1,1.2200664E0,1.7201088E-2,-4.1088808E-1,3.7099794E-1,-4.8666313E-2,3.2126388E-1,-9.43529E-1,1.3033645E-1,8.9287084E-1,-8.3010006E-1,8.128314E-2,9.999768E-1,7.9218835E-1,1.5984819E0,-9.122794E-1,1.0933033E0,3.5477442E-1,-6.7558306E-1,9.636111E-1,1.8787056E-3,2.179321E-4,-2.4171163E-1,-9.223813E-2,1.021986E0,-9.977001E-1,-2.6715916E-1,6.211132E-1,-7.1147126E-1,9.345611E-1,4.088055E-1,-4.217148E-2,-1.1384392E0,2.7902156E-1,-7.715429E-1,1.1281383E0,2.6824805E-1,9.6478313E-1,-3.8025477E-3,5.042422E-1,1.6441579E0,-1.3212958E-1,1.2039974E0,-1.570284E0,-3.6737067E-1,1.1790074E0,1.1701533E-1,7.413392E-1,-1.2766447E0,2.1741913E-1,-6.953376E-2,-5.6020427E-1,-3.5784177E-2,-1.2268525E-1,1.1200031E0,-1.0625161E0,-2.0056814E-1,6.341609E-1,-1.1888844E0,1.0312526E-1,9.092262E-1,9.818038E-1,3.6029303E-1,-1.5432021E-1,6.2099296E-1,1.6443354E-1,1.4515426E0,-9.867966E-1,7.796572E-1,3.0378038E-1,1.3550797E0,1.2544229E0,-1.1713394E0,1.0801864E0,2.682335E-1,3.4870046E-1,-5.1888883E-1],"categories":[],"categories_nodes":[],"categories_segments":[],"categories_sizes":[],"default_left":[true,true,true,true,true,true,true,true,false,true,true,true,true,true,true,true,true,true,true,true,true,true,true,true,true,true,true,false,false,true,true,true,true,true,true,true,false,true,true,true,false,true,true,false,false,true,true,true,true,true,true,false,false,false,false,false,false,false,false,false,false,false,false,false,false,false,false,false,false,false,false,false,false,false,false,false,false,false,false,false,false,false,false,false,false,false,false,false,false],"id":10,"left_children":[1,3,5,7,9,11,13,15,-1,17,19,21,23,25,27,29,31,33,35,37,39,41,43,45,47,49,51,-1,-1,53,55,57,59,61,63,65,-1,67,69,71,-1,73,75,-1,-1,77,79,81,83,85,87,-1,-1,-1,-1,-1,-1,-1,-1,-1,-1,-1,-1,-1,-1,-1,-1,-1,-1,-1,-1,-1,-1,-1,-1,-1,-1,-1,-1,-1,-1,-1,-1,-1,-1,-1,-1,-1,-1],"loss_changes":[5.8269413E1,5.793786E1,1.670037E1,6.04891E1,8.08357E1,1.0243238E1,3.6257057E0,8.7610445E0,0E0,5.292345E1,5.5270844E0,1.2032261E1,1.3867196E1,4.2852974E0,4.732756E0,9.6338215E0,4.5574827E0,4.2321167E1,1.2272511E2,3.4877548E0,2.8338776E0,6.04023E-1,1.0807838E0,1.8008171E1,1.5303593E0,2.4867868E0,3.124237E-2,0E0,0E0,5.35396E0,9.016496E0,1.3204513E0,1.4035973E1,5.424484E1,5.9412296E1,9.995183E0,0E0,4.6695175E0,8.20073E0,5.3174865E-1,0E0,8.456764E-1,7.7119243E-1,0E0,0E0,1.1367802E1,7.489089E0,2.641613E0,7.4676914E0,9.0456676E-1,9.4657546E-1,0E0,0E0,0E0,0E0,0E0,0E0,0E0,0E0,0E0,0E0,0E0,0E0,0E0,0E0,0E0,0E0,0E0,0E0,0E0,0E0,0E0,0E0,0E0,0E0,0E0,0E0,0E0,0E0,0E0,0E0,0E0,0E0,0E0,0E0,0E0,0E0,0E0,0E0],"parents":[2147483647,0,0,1,1,2,2,3,3,4,4,5,5,6,6,7,7,9,9,10,10,11,11,12,12,13,13,14,14,15,15,16,16,17,17,18,18,19,19,20,20,21,21,22,22,23,23,24,24,25,25,26,26,29,29,30,30,31,31,32,32,33,33,34,34,35,35,37,37,38,38,39,39,41,41,42,42,45,45,46,46,47,47,48,48,49,49,50,50],"right_children":[2,4,6,8,10,12,14,16,-1,18,20,22,24,26,28,30,32,34,36,38,40,42,44,46,48,50,52,-1,-1,54,56,58,60,62,64,66,-1,68,70,72,-1,74,76,-1,-1,78,80,82,84,86,88,-1,-1,-1,-1,-1,-1,-1,-1,-1,-1,-1,-1,-1,-1,-1,-1,-1,-1,-1,-1,-1,-1,-1,-1,-1,-1,-1,-1,-1,-1,-1,-1,-1,-1,-1,-1,-1,-1],"split_conditions":[1.692E1,1.9984E4,1.9564999E1,1.55E-1,5E-1,2.5E0,1.565E5,2.95E1,3.216639E-1,3.05E-1,4.95E-1,1.49E5,1.355E5,8.09925E4,1E1,1.05E3,3.15E1,5E-1,5E-1,1.6305E1,1.5E0,5E-1,1.74E5,8.95E4,1.8814999E1,3.15E1,8.5E-2,-2.7368385E-1,3.27991E-1,5E-1,5E-1,1.1485E1,9.5E-2,2.35E1,2.35E1,5E-1,3.065958E-1,2.2175E4,1.6470001E1,1.4450001E1,-2.1344139E-1,1.135E5,2.45E1,-1.2651444E-2,-3.4153175E-1,8.075E4,5E-1,5.5E0,2.6E1,7.1706E4,2.0945E1,1.5127265E-1,4.932474E-1,-3.9638877E-2,3.6119923E-1,-4.7108522E-1,-1.102112E-1,3.5370225E-1,3.5104603E-2,2.2240177E-1,-3.8299343E-1,6.522574E-2,-2.0860128E-2,-1.6806129E-1,-1.0735254E-2,-3.6805578E-2,3.3600095E-1,-3.1875485E-1,-6.0170446E-2,1.9024827E-1,-3.566653E-1,3.0937579E-2,2.7276787E-1,2.9454115E-1,1.0808791E-1,-4.6296064E-2,1.862979E-1,4.9330063E-2,4.354628E-1,-2.96039E-1,2.3389716E-1,9.1134116E-2,4.065239E-1,3.763269E-1,-3.5140184E-1,3.240559E-1,8.0470055E-2,1.04610145E-1,-1.5566665E-1],"split_indices":[4,1,4,5,9,2,1,0,0,5,5,1,1,1,2,3,0,12,10,4,2,9,1,1,4,0,5,0,0,15,2,4,5,0,0,8,0,3,4,4,0,1,0,0,0,1,14,7,0,1,4,0,0,0,0,0,0,0,0,0,0,0,0,0,0,0,0,0,0,0,0,0,0,0,0,0,0,0,0,0,0,0,0,0,0,0,0,0,0],"split_type":[0,0,0,0,0,0,0,0,0,0,0,0,0,0,0,0,0,0,0,0,0,0,0,0,0,0,0,0,0,0,0,0,0,0,0,0,0,0,0,0,0,0,0,0,0,0,0,0,0,0,0,0,0,0,0,0,0,0,0,0,0,0,0,0,0,0,0,0,0,0,0,0,0,0,0,0,0,0,0,0,0,0,0,0,0,0,0,0,0],"sum_hessian":[5.383968E3,5.173382E3,2.1058572E2,1.6124345E2,5.012138E3,1.7456421E2,3.602151E1,6.5195564E1,9.60479E1,4.9058833E3,1.0625522E2,5.15082E1,1.23056E2,3.328696E1,2.7345507E0,4.5352592E1,1.9842968E1,4.4836533E3,4.222298E2,1.0146548E2,4.789746E0,4.786199E1,3.646213E0,1.0451035E2,1.8545649E1,1.7074308E1,1.6212652E1,1.5489159E0,1.1856349E0,1.1563486E1,3.3789104E1,6.997715E0,1.2845253E1,3.5784841E3,9.051691E2,2.6608136E2,1.5614845E2,9.3501755E1,7.9637237E0,3.1913474E0,1.5983987E0,4.320988E1,4.652111E0,1.3452741E0,2.300939E0,8.538548E1,1.912487E1,1.5320531E1,3.2251184E0,1.3857527E1,3.2167816E0,1.1320555E0,1.5080597E1,7.88628E0,3.677206E0,7.608321E0,2.6180786E1,5.2654104E0,1.7323048E0,8.404498E0,4.440756E0,8.6933307E2,2.7091511E3,3.5476312E2,5.50406E2,2.6043884E2,5.64249E0,8.6162796E1,7.3389564E0,4.184169E0,3.7795548E0,1.6259837E0,1.5653636E0,3.926966E1,3.9402173E0,1.3478256E0,3.3042853E0,7.8822556E1,6.562925E0,1.7113895E1,2.0109758E0,3.8120282E0,1.1508502E1,1.990304E0,1.2348143E0,1.1415463E1,2.4420636E0,2.1015773E0,1.1152045E0],"tree_param":{"num_deleted":"0","num_feature":"17","num_nodes":"89","size_leaf_vector":"0"}},{"base_weights":[5.05883E-3,-2.8943567E-2,2.4666634E-1,3.6362414E-3,-3.0481923E-1,1.5530016E-1,8.6256343E-1,1.2954765E-2,-9.1070414E-1,-8.6392075E-1,-1.6089924E-1,3.643553E-2,6.6145426E-1,9.2926615E-1,-6.30945E-2,6.270758E-2,-1.627324E-1,-1.8352134E0,-1.3553733E-1,2.4788642E-1,-9.407749E-1,-5.439547E-2,-4.7201335E-1,4.504344E-1,-1.2972635E-1,2.6045087E-1,9.306688E-1,6.8952185E-1,1.056172E0,6.165831E-1,-5.924577E-1,2.5416657E-1,-1.2606917E-3,-4.1585422E-1,-3.429942E-4,-2.0383222E0,-2.4068208E-1,2.4584636E-1,-1.600144E0,-8.662953E-1,8.375352E-1,-1.0610343E0,-3.553532E-1,-2.8432143E-1,1.7761947E-1,-3.3204237E-1,-1.0179646E0,-2.0794779E-1,9.968824E-1,-2.0174547E-1,8.9345425E-1,3.7698326E-1,-2.2943377E0,6.82542E-1,1.0389912E0,1.0612832E0,-9.797272E-1,-1.1906043E0,4.5129558E-1,9.778017E-2,1.846888E0,-9.463164E-2,1.0529322E-1,-5.490431E-1,-1.3264884E-1,7.3405825E-2,-2.9698136E-1,-2.2037609E0,-1.2413947E-1,7.4340574E-2,-4.3652692E-1,5.24232E-1,-1.3636637E0,-2.3419805E0,2.4753499E-1,-1.1337153E0,8.8131326E-1,4.0645478E-4,-5.5887926E-1,7.4481994E-2,8.843454E-1,-4.405865E-1,4.0927252E-1,-1.2061647E0,1.0620322E0,-6.2370528E-2,-1.5536925E0,1.0088242E0,2.5150508E-1,9.725073E-2,-4.6082857E-1,2.943832E-1,1.2139461E0,6.624534E-1,-6.898429E-2,9.767267E-1,-8.488046E-1,1.0617058E0,5.0239537E-2,6.923597E-2,-2.1097054E0],"categories":[],"categories_nodes":[],"categories_segments":[],"categories_sizes":[],"default_left":[true,true,true,true,true,true,true,true,true,true,true,true,true,true,true,true,true,true,true,true,true,true,true,true,true,true,true,true,false,false,true,true,true,true,true,true,true,true,true,false,false,false,true,true,true,true,true,true,true,true,true,true,false,true,true,false,true,false,false,false,false,false,false,false,false,false,false,false,false,false,false,false,false,false,false,false,false,false,false,false,false,false,false,false,false,false,false,false,false,false,false,false,false,false,false,false,false,false,false,false,false],"id":11,"left_children":[1,3,5,7,9,11,13,15,17,19,21,23,25,27,29,31,33,35,37,39,41,43,45,47,49,51,53,55,-1,-1,57,59,61,63,65,67,69,71,73,-1,-1,-1,75,77,79,81,83,85,87,89,91,93,-1,95,97,-1,99,-1,-1,-1,-1,-1,-1,-1,-1,-1,-1,-1,-1,-1,-1,-1,-1,-1,-1,-1,-1,-1,-1,-1,-1,-1,-1,-1,-1,-1,-1,-1,-1,-1,-1,-1,-1,-1,-1,-1,-1,-1,-1,-1,-1],"loss_changes":[4.318305E1,4.1418564E1,3.635826E1,3.51356E1,3.9026154E1,3.4025017E1,5.2176323E0,3.568861E1,2.9566265E1,8.72773E0,1.2841148E1,3.1658823E1,1.1370525E1,1.6449509E0,2.7229211E0,3.8967216E1,3.703856E1,5.6285515E0,1.3636789E1,5.468323E0,6.1840134E0,1.5543118E1,7.2197495E0,4.7621597E1,2.4392784E1,1.4142422E1,1.010292E0,1.958147E1,0E0,0E0,3.1554742E0,1.9828912E2,2.3746986E1,1.3210648E1,1.20524435E1,4.9913864E0,2.3411436E-1,9.531731E0,7.476304E0,0E0,0E0,0E0,1.7733753E1,1.1433155E1,1.0515338E1,6.633898E0,8.991844E0,1.1775321E1,3.8884735E-1,2.3887577E1,3.8264923E0,5.5851383E0,0E0,1.09003E1,9.038086E-1,0E0,7.213203E0,0E0,0E0,0E0,0E0,0E0,0E0,0E0,0E0,0E0,0E0,0E0,0E0,0E0,0E0,0E0,0E0,0E0,0E0,0E0,0E0,0E0,0E0,0E0,0E0,0E0,0E0,0E0,0E0,0E0,0E0,0E0,0E0,0E0,0E0,0E0,0E0,0E0,0E0,0E0,0E0,0E0,0E0,0E0,0E0],"parents":[2147483647,0,0,1,1,2,2,3,3,4,4,5,5,6,6,7,7,8,8,9,9,10,10,11,11,12,12,13,13,14,14,15,15,16,16,17,17,18,18,19,19,20,20,21,21,22,22,23,23,24,24,25,25,26,26,27,27,30,30,31,31,32,32,33,33,34,34,35,35,36,36,37,37,38,38,42,42,43,43,44,44,45,45,46,46,47,47,48,48,49,49,50,50,51,51,53,53,54,54,56,56],"right_children":[2,4,6,8,10,12,14,16,18,20,22,24,26,28,30,32,34,36,38,40,42,44,46,48,50,52,54,56,-1,-1,58,60,62,64,66,68,70,72,74,-1,-1,-1,76,78,80,82,84,86,88,90,92,94,-1,96,98,-1,100,-1,-1,-1,-1,-1,-1,-1,-1,-1,-1,-1,-1,-1,-1,-1,-1,-1,-1,-1,-1,-1,-1,-1,-1,-1,-1,-1,-1,-1,-1,-1,-1,-1,-1,-1,-1,-1,-1,-1,-1,-1,-1,-1,-1],"split_conditions":[1.5275E1,5E-1,5E-1,1.5219999E1,1.0975E1,5E-1,5E-1,5E-1,1.524E1,1.96E4,7.4098E4,2.5E0,4.8498E4,1.5975E1,1.6470001E1,2.35E1,2.35E1,1.15E1,5E-1,1.55E-1,3.05E-1,1.305E1,8.5E0,5E-1,1.9564999E1,4.69E4,1.5975E1,1.5955E1,3.1685162E-1,1.8497494E-1,7E4,5E-1,1.113E1,5.5E0,7.929E4,2.7E-1,7.5E0,5E-1,2.5E-1,-2.598886E-1,2.5126058E-1,-3.1831032E-1,5E-1,1.1309999E1,6.57E4,2.475E4,4.15E1,1.49E5,4.9E1,5.99135E4,8.09925E4,3.5002E4,-6.883013E-1,1.5915E1,4.95E1,3.1838498E-1,4.71E4,-3.571813E-1,1.3538869E-1,2.9334052E-2,5.540664E-1,-2.8389493E-2,3.158797E-2,-1.6471294E-1,-3.9794654E-2,2.2021748E-2,-8.9094415E-2,-6.611283E-1,-3.7241843E-2,2.2302173E-2,-1.3095808E-1,1.572696E-1,-4.0909913E-1,-7.0259416E-1,7.42605E-2,-3.401146E-1,2.64394E-1,1.2193644E-4,-1.6766378E-1,2.2344599E-2,2.6530364E-1,-1.3217595E-1,1.2278176E-1,-3.6184943E-1,3.1860968E-1,-1.8711159E-2,-4.6610776E-1,3.026473E-1,7.545152E-2,2.917522E-2,-1.3824858E-1,8.8314965E-2,3.6418384E-1,1.9873603E-1,-2.0695288E-2,2.93018E-1,-2.5464138E-1,3.1851175E-1,1.5071861E-2,2.0770792E-2,-6.329117E-1],"split_indices":[4,16,11,4,4,14,9,12,4,1,1,2,1,4,4,0,0,2,14,5,5,4,2,10,4,1,4,4,0,0,1,13,4,2,1,5,7,11,5,0,0,0,10,4,1,3,0,1,0,1,1,1,0,4,0,0,1,0,0,0,0,0,0,0,0,0,0,0,0,0,0,0,0,0,0,0,0,0,0,0,0,0,0,0,0,0,0,0,0,0,0,0,0,0,0,0,0,0,0,0,0],"split_type":[0,0,0,0,0,0,0,0,0,0,0,0,0,0,0,0,0,0,0,0,0,0,0,0,0,0,0,0,0,0,0,0,0,0,0,0,0,0,0,0,0,0,0,0,0,0,0,0,0,0,0,0,0,0,0,0,0,0,0,0,0,0,0,0,0,0,0,0,0,0,0,0,0,0,0,0,0,0,0,0,0,0,0,0,0,0,0,0,0,0,0,0,0,0,0,0,0,0,0,0,0],"sum_hessian":[5.254591E3,4.6070957E3,6.4749493E2,4.1213657E3,4.8572995E2,5.649402E2,8.2554756E1,4.0807625E3,4.0603363E1,9.8412704E1,3.8731723E2,4.5836926E2,1.0657091E2,7.70021E1,5.552657E0,3.1806719E3,9.0009076E2,1.7894194E1,2.270917E1,6.2190943E0,9.219361E1,2.8941617E2,9.790106E1,1.3079E2,3.2757925E2,4.3597916E1,6.2972996E1,2.887888E1,4.812322E1,2.359021E0,3.193636E0,7.9581116E2,2.3848606E3,3.5116196E2,5.489288E2,1.562552E1,2.2686741E0,1.867765E1,4.03152E0,1.9898897E0,4.229204E0,7.580836E1,1.6385252E1,1.4524925E2,1.4416692E2,7.920315E1,1.8697916E1,5.960046E1,7.118954E1,3.0678806E2,2.0791216E1,4.2511276E1,1.0866396E0,2.1355783E1,4.161721E1,2.391659E1,4.96229E0,1.94075E0,1.252886E0,7.2562476E2,7.0186386E1,1.2711184E3,1.1137423E3,2.3820001E2,1.12961945E2,4.4023273E2,1.0869603E2,1.4243229E1,1.3822906E0,1.1075523E0,1.161122E0,1.649834E1,2.1793103E0,2.6856966E0,1.3458232E0,1.0107074E1,6.2781777E0,7.17942E1,7.345505E1,1.2677163E2,1.7395285E1,6.944116E1,9.761984E0,1.753174E1,1.1661762E0,5.4726692E1,4.873768E0,6.971912E1,1.4704193E0,1.4271347E2,1.6407457E2,7.914946E0,1.287627E1,2.562373E1,1.6887545E1,1.8218107E1,3.1376748E0,4.061048E1,1.0067322E0,3.0602114E0,1.9020783E0],"tree_param":{"num_deleted":"0","num_feature":"17","num_nodes":"101","size_leaf_vector":"0"}},{"base_weights":[4.396214E-3,5.1527584E-1,-9.582986E-3,-1.2388119E-1,1.0522445E0,3.659514E-3,-7.091788E-1,-2.7128765E-1,3.955314E-1,-2.0815978E-2,2.8350613E-1,-9.1278386E-1,5.3244177E-2,-3.5235044E-1,6.5605515E-1,1.0697397E0,-1.9402148E-1,-2.8862086E-1,1.9459107E-3,-4.149378E-2,1.0125692E0,-9.9112344E-1,-1.4536187E-1,-1.2227467E-1,9.133495E-1,-1.4001038E0,-2.7446577E-1,2.1220519E-1,7.880007E-1,-6.767013E-1,9.0495604E-1,-3.9745456E-1,2.5113156E-1,-3.9189216E-2,1.893535E-1,4.790922E-2,-3.8515365E-1,-1.0395386E0,-4.6797324E-2,-8.58158E-1,7.6999754E-1,-3.9674973E-1,7.493757E-1,-6.551264E-1,-1.1232186E-2,7.739542E-2,-1.1413327E0,-6.7672205E-1,-2.0270413E-1,1.194094E0,-7.097428E-2,-7.4153304E-2,1.4541712E-1,-3.4920892E-1,3.0849776E-1,1.7054847E-1,-3.3025107E-1,8.387849E-1,-5.9960395E-1,5.029784E-1,-6.942044E-1,1.8781359E0,-6.8875587E-1,3.0142373E-1,-6.8603873E-1],"categories":[],"categories_nodes":[],"categories_segments":[],"categories_sizes":[],"default_left":[true,true,true,true,false,true,true,true,true,true,true,true,true,true,true,false,true,true,true,true,false,true,true,true,false,false,true,false,false,true,false,true,true,true,true,true,true,false,true,false,true,true,false,false,false,false,false,false,false,false,false,false,false,false,false,false,false,false,false,false,false,false,false,false,false],"id":12,"left_children":[1,3,5,7,-1,9,11,13,15,17,19,21,23,25,27,-1,29,31,33,35,-1,37,39,41,-1,-1,43,-1,-1,45,-1,47,49,51,53,55,57,-1,59,-1,61,63,-1,-1,-1,-1,-1,-1,-1,-1,-1,-1,-1,-1,-1,-1,-1,-1,-1,-1,-1,-1,-1,-1,-1],"loss_changes":[3.6661144E1,4.7054996E1,4.6296646E1,4.955151E0,0E0,3.3603153E1,1.4459644E1,3.983295E0,5.9327292E0,2.7501991E1,9.3533875E1,4.2641144E0,3.208151E0,3.414506E0,8.8226676E-2,0E0,5.1375403E0,2.0861237E1,3.207047E1,8.433003E0,0E0,2.985321E0,5.8567133E0,4.5838647E0,0E0,0E0,4.459113E0,0E0,0E0,2.3656187E0,0E0,1.5880383E1,1.8283955E1,2.202985E1,4.8153908E1,1.0176938E1,1.5372095E1,0E0,1.8737786E0,0E0,7.7813454E0,3.0909708E0,0E0,0E0,0E0,0E0,0E0,0E0,0E0,0E0,0E0,0E0,0E0,0E0,0E0,0E0,0E0,0E0,0E0,0E0,0E0,0E0,0E0,0E0,0E0],"parents":[2147483647,0,0,1,1,2,2,3,3,5,5,6,6,7,7,8,8,9,9,10,10,11,11,12,12,13,13,14,14,16,16,17,17,18,18,19,19,21,21,22,22,23,23,26,26,29,29,31,31,32,32,33,33,34,34,35,35,36,36,38,38,40,40,41,41],"right_children":[2,4,6,8,-1,10,12,14,16,18,20,22,24,26,28,-1,30,32,34,36,-1,38,40,42,-1,-1,44,-1,-1,46,-1,48,50,52,54,56,58,-1,60,-1,62,64,-1,-1,-1,-1,-1,-1,-1,-1,-1,-1,-1,-1,-1,-1,-1,-1,-1,-1,-1,-1,-1,-1,-1],"split_conditions":[1.9984E4,1.55E-1,5E-1,5E-1,3.1567338E-1,3.05E-1,1.6075E1,5E-1,1.3E3,7.46E0,5E-1,2.2175E4,1.9445E1,6.5E-2,1.7388E4,3.2092193E-1,1.3780001E1,8.5E0,5E-1,5E-1,3.0377078E-1,4.95E-1,5E-1,5E-1,2.7400488E-1,-4.2003116E-1,2.35E1,6.366156E-2,2.3640022E-1,1.55E3,2.7148682E-1,3.5E0,3.5E0,5E-1,9.995E0,7.5E0,5E-1,-3.118616E-1,5.05E-1,-2.5744742E-1,1.4245E1,1.6470001E1,2.2481272E-1,-1.9653793E-1,-3.369656E-3,2.3218626E-2,-3.4239984E-1,-2.0301662E-1,-6.081124E-2,3.582282E-1,-2.1292286E-2,-2.2245992E-2,4.362514E-2,-1.0476268E-1,9.254933E-2,5.116454E-2,-9.9075325E-2,2.5163546E-1,-1.7988119E-1,1.5089352E-1,-2.0826133E-1,5.634408E-1,-2.0662677E-1,9.042712E-2,-2.0581163E-1],"split_indices":[1,5,9,15,0,5,4,13,3,4,10,3,4,5,1,0,4,2,11,12,0,5,6,14,0,0,0,0,0,3,0,7,7,13,4,7,2,0,5,0,4,4,0,0,0,0,0,0,0,0,0,0,0,0,0,0,0,0,0,0,0,0,0,0,0],"split_type":[0,0,0,0,0,0,0,0,0,0,0,0,0,0,0,0,0,0,0,0,0,0,0,0,0,0,0,0,0,0,0,0,0,0,0,0,0,0,0,0,0,0,0,0,0,0,0,0,0,0,0,0,0,0,0,0,0,0,0,0,0,0,0,0,0],"sum_hessian":[5.1317085E3,1.3572389E2,4.9959844E3,6.2316956E1,7.340694E1,4.9041494E3,9.183483E1,4.8913322E1,1.3403633E1,4.510578E3,3.935713E2,7.23236E1,1.951123E1,4.5551525E1,3.3617992E0,5.8729157E0,7.530717E0,3.5242648E2,4.158152E3,2.728735E2,1.2069779E2,6.5360054E1,6.9635487E0,1.6916893E1,2.594337E0,1.9771419E0,4.3574383E1,1.3680639E0,1.9937353E0,5.4995255E0,2.0311916E0,2.935082E2,5.8918293E1,3.4103796E3,7.4777216E2,2.1722346E2,5.565002E1,6.2076584E1,3.2834673E0,3.9500842E0,3.0134647E0,1.3279975E1,3.6369185E0,1.720523E1,2.636915E1,2.414393E0,3.0851326E0,1.19571175E2,1.7393703E2,1.4312223E1,4.460607E1,2.8678186E3,5.425611E2,1.3510992E2,6.1266223E2,1.6444284E2,5.2780624E1,7.8628454E0,4.7787174E1,1.8962591E0,1.3872082E0,1.5491574E0,1.4643072E0,3.8782396E0,9.401735E0],"tree_param":{"num_deleted":"0","num_feature":"17","num_nodes":"65","size_leaf_vector":"0"}},{"base_weights":[3.7111982E-3,6.810355E-2,-9.298878E-2,3.407158E-2,1.3937835E0,-8.8362354E-1,-3.84259E-2,-2.0787239E-3,3.3956063E-1,1.668512E0,1.7727372E-1,-2.6159E-1,-1.0068299E0,3.7152055E-1,-8.489738E-2,-3.3783738E-2,2.906616E-1,-1.2513402E-1,8.21828E-1,2.4324443E0,1.33436E0,-6.516526E-1,1.3378061E0,-6.939195E-1,2.0535283E-1,-1.035074E0,4.0651605E-1,-9.294188E-2,1.3664047E0,-1.2446824E0,-3.403105E-2,-6.929374E-2,1.9833748E-1,-2.1048656E-2,1.0022659E0,1.2971165E0,-2.8473935E-1,1.5029724E0,-1.3272236E-1,3.7369823E0,1.9272593E0,-3.665501E-1,1.3865246E0,-9.373709E-1,8.721765E-1,1.7455201E-1,1.7914411E0,-9.708667E-1,5.0379384E-1,8.6679316E-1,-8.8990235E-1,-9.4863707E-1,-1.4727197E0,-4.3255764E-1,8.6920506E-1,1.532495E0,4.7136748E-1,-1.3117981E0,-6.30956E-1,4.782161E-1,-8.914177E-2,-9.645081E-3,-5.5337816E-1,1.0640783E0,-2.8007233E-1,-1.097838E-1,7.6274467E-1,-3.7335638E-2,-5.6016356E-1,1.2212784E0,2.0640438E0,1.2295023E0,-3.342567E-1,2.2353568E0,1.7146184E-1,1.429055E0,-1.664022E-1,-4.617121E-2,-1.0831369E0,2.0381067E0,6.046603E-1,1.2789518E0,-5.278688E-1,-1.0391821E0,-7.044163E-2,-1.5934615E0,-1.3023913E-1,-5.959112E-1,1.21815614E-1,1.3445625E0,-3.27303E-2,1.6843872E0,4.5888778E-2,-2.6223993E-1,1.7511991E0,-1.3535905E0,-5.7233995E-1,-1.2294846E0,4.0783483E-1,1.6389381E-2,1.8134532E0,-1.0988226E0,-2.7398093E-2],"categories":[],"categories_nodes":[],"categories_segments":[],"categories_sizes":[],"default_left":[true,true,true,true,true,true,true,true,true,true,true,true,true,true,true,true,true,true,true,true,true,true,true,true,true,true,false,true,true,true,true,true,true,true,false,false,true,true,true,false,true,false,true,true,false,false,true,false,false,true,false,true,true,true,true,true,true,true,true,true,true,false,false,false,false,false,false,false,false,false,false,false,false,false,false,false,false,false,false,false,false,false,false,false,false,false,false,false,false,false,false,false,false,false,false,false,false,false,false,false,false,false,false],"id":13,"left_children":[1,3,5,7,9,11,13,15,17,19,21,23,25,27,29,31,33,35,37,39,41,43,45,47,49,51,-1,53,55,57,59,61,63,65,-1,-1,67,69,71,-1,73,-1,75,77,-1,-1,79,-1,-1,81,-1,83,85,87,89,91,93,95,97,99,101,-1,-1,-1,-1,-1,-1,-1,-1,-1,-1,-1,-1,-1,-1,-1,-1,-1,-1,-1,-1,-1,-1,-1,-1,-1,-1,-1,-1,-1,-1,-1,-1,-1,-1,-1,-1,-1,-1,-1,-1,-1,-1],"loss_changes":[3.1309547E1,1.3612476E2,8.667266E1,3.251044E1,2.4943588E1,9.677223E0,3.5870197E1,2.4450205E1,6.991225E1,1.2450195E1,1.5332235E1,4.7441697E0,4.7285233E0,8.8721436E1,9.968622E1,1.9605251E1,5.7122833E1,3.6577515E1,9.9672844E1,4.3281937E0,4.500244E0,4.9280577E0,3.165142E0,4.4909453E0,9.269392E0,2.6158218E0,0E0,4.339165E1,8.358231E0,2.0968094E0,4.57895E1,5.954143E1,1.310236E2,1.2602342E1,0E0,0E0,9.807346E0,1.1603165E1,1.815378E1,0E0,7.556244E0,0E0,3.1347427E0,1.0454087E0,0E0,0E0,1.2407589E-1,0E0,0E0,5.1703267E0,0E0,7.1941605E0,2.3350334E0,8.944317E0,1.4911264E1,1.1456505E1,1.079201E1,1.1744766E0,6.0508924E0,9.7132065E1,9.123294E1,0E0,0E0,0E0,0E0,0E0,0E0,0E0,0E0,0E0,0E0,0E0,0E0,0E0,0E0,0E0,0E0,0E0,0E0,0E0,0E0,0E0,0E0,0E0,0E0,0E0,0E0,0E0,0E0,0E0,0E0,0E0,0E0,0E0,0E0,0E0,0E0,0E0,0E0,0E0,0E0,0E0,0E0],"parents":[2147483647,0,0,1,1,2,2,3,3,4,4,5,5,6,6,7,7,8,8,9,9,10,10,11,11,12,12,13,13,14,14,15,15,16,16,17,17,18,18,19,19,20,20,21,21,22,22,23,23,24,24,25,25,27,27,28,28,29,29,30,30,31,31,32,32,33,33,36,36,37,37,38,38,40,40,42,42,43,43,46,46,49,49,51,51,52,52,53,53,54,54,55,55,56,56,57,57,58,58,59,59,60,60],"right_children":[2,4,6,8,10,12,14,16,18,20,22,24,26,28,30,32,34,36,38,40,42,44,46,48,50,52,-1,54,56,58,60,62,64,66,-1,-1,68,70,72,-1,74,-1,76,78,-1,-1,80,-1,-1,82,-1,84,86,88,90,92,94,96,98,100,102,-1,-1,-1,-1,-1,-1,-1,-1,-1,-1,-1,-1,-1,-1,-1,-1,-1,-1,-1,-1,-1,-1,-1,-1,-1,-1,-1,-1,-1,-1,-1,-1,-1,-1,-1,-1,-1,-1,-1,-1,-1,-1],"split_conditions":[5.98535E4,5.86125E4,6.0071E4,5E-1,5.9012E4,7.95E0,6.4628E4,3.05E-1,5E-1,1.0365E1,5E-1,7.46E0,1.6E1,6.3506E4,6.50145E4,5.3094E4,5E-1,2.35E1,4.9681E4,5.8725E4,4.5E-2,3.85E1,5.94205E4,5E-1,2.65E1,1.46E1,1.2195482E-1,5E-1,6.40245E4,1.795E4,6.93715E4,4.9986E4,5.44585E4,2.29E4,3.006798E-1,3.8913497E-1,7.1625E3,4.0627E4,2.35E1,1.1210947E0,5E-1,-1.09965034E-1,2.4125E4,1.5E0,2.6165298E-1,5.2365605E-2,1.3335E1,-2.9126E-1,1.5113816E-1,1.45E4,-2.6697072E-1,1.41E1,1.75E4,3.15E1,5E-1,5E-1,6.45915E4,1.5995E1,5E-1,6.8963E4,7.0473E4,-2.8935245E-3,-1.6601345E-1,3.1922352E-1,-8.40217E-2,-3.2935143E-2,2.2882341E-1,-1.1200692E-2,-1.6804907E-1,3.6638355E-1,6.1921316E-1,3.688507E-1,-1.00277014E-1,6.706071E-1,5.143855E-2,4.287165E-1,-4.9920663E-2,-1.3851364E-2,-3.249411E-1,6.11432E-1,1.813981E-1,3.8368556E-1,-1.5836065E-1,-3.1175464E-1,-2.1132492E-2,-4.7803846E-1,-3.907174E-2,-1.7877337E-1,3.6544684E-2,4.0336877E-1,-9.81909E-3,5.053162E-1,1.3766634E-2,-7.8671984E-2,5.2535975E-1,-4.0607718E-1,-1.71702E-1,-3.6884537E-1,1.22350454E-1,4.9168146E-3,5.44036E-1,-3.296468E-1,-8.219428E-3],"split_indices":[1,1,1,13,1,4,1,5,10,4,14,4,2,1,1,1,10,0,1,1,5,0,1,13,0,4,0,14,1,3,1,1,1,3,0,0,3,1,0,0,14,0,3,2,0,0,4,0,0,3,0,4,3,0,10,14,1,4,10,1,1,0,0,0,0,0,0,0,0,0,0,0,0,0,0,0,0,0,0,0,0,0,0,0,0,0,0,0,0,0,0,0,0,0,0,0,0,0,0,0,0,0,0],"split_type":[0,0,0,0,0,0,0,0,0,0,0,0,0,0,0,0,0,0,0,0,0,0,0,0,0,0,0,0,0,0,0,0,0,0,0,0,0,0,0,0,0,0,0,0,0,0,0,0,0,0,0,0,0,0,0,0,0,0,0,0,0,0,0,0,0,0,0,0,0,0,0,0,0,0,0,0,0,0,0,0,0,0,0,0,0,0,0,0,0,0,0,0,0,0,0,0,0,0,0,0,0,0,0],"sum_hessian":[5.026224E3,3.0173027E3,2.0089213E3,2.9427834E3,7.4519485E1,1.2870773E2,1.8802135E3,2.6322832E3,3.1050024E2,6.0487766E1,1.4031719E1,2.1794867E1,1.0691287E2,1.9072707E2,1.6894865E3,2.3758528E3,2.564303E2,1.5850824E2,1.5199202E2,1.6495834E1,4.3991932E1,8.441062E0,5.590657E0,1.106448E1,1.0730387E1,1.0508059E2,1.8322779E0,1.306429E2,6.0084164E1,6.999882E1,1.6194877E3,2.0612268E3,3.146259E2,1.789943E2,7.7436005E1,1.5273988E1,1.4323425E2,8.836344E1,6.362858E1,2.8190222E0,1.3676812E1,1.1296933E0,4.2862236E1,7.4323525E0,1.0087094E0,1.9570326E0,3.6336246E0,9.140355E0,1.9241245E0,6.8201766E0,3.9102101E0,9.039481E1,1.46857815E1,9.6966415E1,3.367649E1,5.00789E1,1.0005263E1,6.20732E1,7.925616E0,1.5656438E2,1.4629232E3,1.836014E3,2.2521288E2,1.1154587E2,2.0308002E2,1.6156326E2,1.7431036E1,7.605358E1,6.7180664E1,6.094288E1,2.7420563E1,7.542963E0,5.6085617E1,1.1402785E1,2.2740264E0,4.179729E1,1.0649467E0,1.2298594E0,6.202493E0,2.4144535E0,1.219171E0,5.328449E0,1.4917276E0,8.177972E1,8.615092E0,1.3302418E1,1.383363E0,7.483913E1,2.2127287E1,2.1732046E1,1.1944445E1,4.5315773E1,4.763124E0,6.8651915E0,3.140072E0,5.7966553E1,4.1066494E0,4.9119086E0,3.0137074E0,1.17081085E2,3.9483288E1,8.333688E1,1.3795864E3],"tree_param":{"num_deleted":"0","num_feature":"17","num_nodes":"103","size_leaf_vector":"0"}},{"base_weights":[2.3909886E-3,-1.21025415E-2,3.5361165E-1,2.9334323E-2,-1.8569179E-1,2.813735E-1,9.542448E-1,7.382077E-3,1.0824144E0,-1.2109272E0,-1.32884E-1,1.8580887E-1,8.161553E-1,3.305132E-1,1.1039832E0,2.2445478E-2,-4.3817762E-1,1.3371736E0,2.4139404E-1,-6.588395E-2,-1.3105276E0,-2.3287871E-1,1.1457818E-1,1.065743E-1,8.5041666E-1,-2.221931E-1,9.15831E-1,5.447554E-1,-2.9831427E-1,1.1739482E0,3.618907E-1,-7.987783E-3,1.2463018E0,-8.8850534E-1,2.6489025E-1,1.481597E0,4.077825E-1,-6.609756E-1,5.9268266E-1,1.0573888E0,-7.496747E-1,-3.7702632E-1,-4.2553063E-2,3.6640963E-1,-1.4165488E-1,4.5526016E-1,-7.822306E-3,9.7761637E-1,-2.7023175E-1,5.38743E-1,-8.761347E-1,9.494778E-1,1.5975681E-1,-2.6908657E-1,8.736611E-1,1.2713158E0,5.704395E-1,2.0298015E-2,-6.198377E-1,2.484883E0,9.9148273E-1,-4.642759E-1,-1.0455372E0,7.7602273E-1,-3.7125275E-1,1.7203872E0,5.1098716E-1,-6.034036E-1,1.5468968E0,-1.0295006E0,4.4085974E-1,1.1827285E0,1.4075676E-1,-2.5816573E-2,-6.2240815E-1,2.097935E0,-1.8000038E-1,1.0190918E0,1.7248629E-1,-2.2685213E-1,2.273647E0,2.8489452E-2,9.850113E-1,-1.6662894E-1,7.761479E-1,8.395143E-1,1.6695775E-2],"categories":[],"categories_nodes":[],"categories_segments":[],"categories_sizes":[],"default_left":[true,true,true,true,true,true,true,true,true,true,true,true,true,true,true,true,true,true,true,true,false,true,true,true,true,true,true,true,false,true,false,true,true,true,true,true,true,true,true,false,false,true,true,true,true,true,true,false,false,false,false,false,false,false,false,false,true,false,false,false,false,false,false,false,false,false,false,false,false,false,false,false,false,false,false,false,false,false,false,false,false,false,false,false,false,false,false],"id":14,"left_children":[1,3,5,7,9,11,13,15,17,19,21,23,25,27,29,31,33,35,37,39,-1,41,43,45,47,49,51,53,-1,55,-1,57,59,61,63,65,67,69,71,-1,-1,73,75,77,79,81,83,-1,-1,-1,-1,-1,-1,-1,-1,-1,85,-1,-1,-1,-1,-1,-1,-1,-1,-1,-1,-1,-1,-1,-1,-1,-1,-1,-1,-1,-1,-1,-1,-1,-1,-1,-1,-1,-1,-1,-1],"loss_changes":[2.5113806E1,3.408712E1,8.214825E0,8.843862E1,4.9280785E1,8.840343E0,1.5565147E0,2.517074E1,1.641494E1,5.0013123E0,2.154491E1,7.8382206E0,2.9337654E0,8.913499E-1,4.143219E-1,1.3510841E2,3.906588E1,7.4141006E0,6.535827E0,4.3433847E0,0E0,1.6984558E1,1.624401E1,5.415307E0,2.5299873E0,2.022202E0,4.6559525E-1,1.4099367E0,0E0,1.1651611E-1,0E0,6.1281376E1,2.531485E1,4.5101776E0,1.6108482E1,1.1016159E1,1.1777145E1,2.8511784E0,3.6943169E0,0E0,0E0,3.036113E1,7.927889E1,1.5877443E1,2.6258675E1,7.553E0,1.2970175E1,0E0,0E0,0E0,0E0,0E0,0E0,0E0,0E0,0E0,5.527532E-1,0E0,0E0,0E0,0E0,0E0,0E0,0E0,0E0,0E0,0E0,0E0,0E0,0E0,0E0,0E0,0E0,0E0,0E0,0E0,0E0,0E0,0E0,0E0,0E0,0E0,0E0,0E0,0E0,0E0,0E0],"parents":[2147483647,0,0,1,1,2,2,3,3,4,4,5,5,6,6,7,7,8,8,9,9,10,10,11,11,12,12,13,13,14,14,15,15,16,16,17,17,18,18,19,19,21,21,22,22,23,23,24,24,25,25,26,26,27,27,29,29,31,31,32,32,33,33,34,34,35,35,36,36,37,37,38,38,41,41,42,42,43,43,44,44,45,45,46,46,56,56],"right_children":[2,4,6,8,10,12,14,16,18,20,22,24,26,28,30,32,34,36,38,40,-1,42,44,46,48,50,52,54,-1,56,-1,58,60,62,64,66,68,70,72,-1,-1,74,76,78,80,82,84,-1,-1,-1,-1,-1,-1,-1,-1,-1,86,-1,-1,-1,-1,-1,-1,-1,-1,-1,-1,-1,-1,-1,-1,-1,-1,-1,-1,-1,-1,-1,-1,-1,-1,-1,-1,-1,-1,-1,-1],"split_conditions":[1.6795E1,7.99935E4,1.9970001E1,7.7947E4,8.0002E4,5E-1,5.244E4,7.48695E4,1.5725E4,7.0649996E0,1.9775E4,5E-1,2.9E3,2.85E1,3.45E1,7.29275E4,7.5998E4,5E-1,1.935E4,3.5E0,-3.931583E-1,1.07903E5,1.08673E5,2.5E0,5E-1,2.5E0,4.05E1,2.5E0,-8.949429E-2,5E-1,1.08567216E-1,6.93715E4,9.934999E0,1.0165E1,7.66585E4,7.8998E4,7.9025E4,1.398E1,1.1309999E1,3.1721663E-1,-2.249024E-1,8.8134E4,1.080205E5,1.5E0,4.85E1,5E-1,1.355E5,2.9328492E-1,-8.106953E-2,1.6162291E-1,-2.6284042E-1,2.8484336E-1,4.7927044E-2,-8.0725975E-2,2.6209834E-1,3.8139477E-1,2.0740002E1,6.0894047E-3,-1.8595132E-1,7.454649E-1,2.9744482E-1,-1.3928278E-1,-3.136612E-1,2.3280683E-1,-1.1137583E-1,5.161162E-1,1.5329616E-1,-1.810211E-1,4.6406907E-1,-3.088502E-1,1.3225792E-1,3.5481858E-1,4.222703E-2,-7.744972E-3,-1.8672246E-1,6.293805E-1,-5.4000117E-2,3.0572757E-1,5.1745888E-2,-6.8055645E-2,6.8209416E-1,8.546836E-3,2.955034E-1,-4.9988683E-2,2.3284438E-1,2.518543E-1,5.008733E-3],"split_indices":[4,1,4,1,1,14,1,1,3,4,3,11,3,0,0,1,1,14,3,7,0,1,1,2,9,2,0,7,0,15,0,1,4,4,1,1,1,4,4,0,0,1,1,2,0,10,1,0,0,0,0,0,0,0,0,0,4,0,0,0,0,0,0,0,0,0,0,0,0,0,0,0,0,0,0,0,0,0,0,0,0,0,0,0,0,0,0],"split_type":[0,0,0,0,0,0,0,0,0,0,0,0,0,0,0,0,0,0,0,0,0,0,0,0,0,0,0,0,0,0,0,0,0,0,0,0,0,0,0,0,0,0,0,0,0,0,0,0,0,0,0,0,0,0,0,0,0,0,0,0,0,0,0,0,0,0,0,0,0,0,0,0,0,0,0,0,0,0,0,0,0,0,0,0,0,0,0],"sum_hessian":[4.9316953E3,4.737176E3,1.9451953E2,3.8249636E3,9.1221234E2,1.7494711E2,1.957243E1,3.747844E3,7.711962E1,4.3610306E1,8.68602E2,1.4956715E2,2.5379955E1,4.409992E0,1.5162438E1,3.6261997E3,1.2164428E2,5.8737194E1,1.838243E1,3.6227887E0,3.998752E1,6.1866876E2,2.4993327E2,1.3467192E2,1.4895235E1,2.1152864E0,2.326467E1,3.3890395E0,1.0209528E0,1.3324274E1,1.8381635E0,3.5391853E3,8.701437E1,7.3989136E1,4.7655144E1,5.032305E1,8.414144E0,4.9039288E0,1.34785E1,1.1641159E0,2.4586728E0,3.5148352E2,2.6718524E2,1.2583243E2,1.2410085E2,3.253232E1,1.02139595E2,1.3491509E1,1.4037263E0,1.0590825E0,1.0562038E0,2.2028555E1,1.2361145E0,1.0277802E0,2.3612592E0,1.0520412E1,2.8038619E0,3.383723E3,1.5546255E2,1.3353988E1,7.3660385E1,2.105759E1,5.2931545E1,2.630197E1,2.1353172E1,3.9767048E1,1.0556003E1,4.7064967E0,3.7076466E0,3.7240236E0,1.1799052E0,5.144554E0,8.333946E0,1.4502194E2,2.0646158E2,1.5260927E1,2.519243E2,2.7848478E1,9.798395E1,1.2074768E2,3.3531713E0,1.8601011E1,1.3931307E1,8.558944E1,1.6550158E1,1.5396472E0,1.2642145E0],"tree_param":{"num_deleted":"0","num_feature":"17","num_nodes":"87","size_leaf_vector":"0"}},{"base_weights":[6.4439606E-4,9.325884E-3,-5.112513E-1,1.3989323E-1,-2.5310349E-2,4.0640327E-1,-6.6521317E-1,6.83264E-2,8.595468E-1,-6.900312E-1,-1.0031379E-2,-8.12785E-1,7.8584766E-1,-8.981951E-1,5.399605E-2,3.1447835E-2,5.190465E-1,9.010257E-1,-1.1016995E0,-1.0430879E-1,-9.0501374E-1,-5.3083345E-2,1.2243436E-1,8.986087E-1,1.1029139E-1,-9.953535E-1,-1.19085096E-1,-1.7675972E-1,5.5212766E-1,4.5525778E-2,-1.3293047E0,6.936393E-1,1.4422023E-1,1.3615282E0,7.629211E-1,1.098623E0,-2.8359985E-1,-9.455029E-1,4.92462E-1,2.6419045E-2,-1.2752095E-1,4.852699E-2,4.6004215E-1,-1.01957E0,-2.8725109E-1,-7.8451926E-1,5.472771E-1,3.748501E-1,-5.047607E-1,8.711712E-1,7.1413785E-2,6.466696E-2,-7.587323E-1,-1.6979202E0,6.125991E-1,7.7834916E-1,2.4862099E-1,-4.500537E-1,4.9373904E-1,1.4785154E0,-3.4722045E-1,9.09513E-1,-1.8825686E-2,-1.124642E0,1.3266177E-1,-6.5770435E-1,-1.1740016E0,-5.4417916E-2,8.810046E-1,-1.1219096E0,-8.1004664E-2,-4.315389E-2,3.8202047E-1,6.1758727E-1,-2.9749563E-1,1.2080956E0,-6.006457E-1,-8.908147E-2,7.676239E-1,-9.854229E-1,-6.7207836E-2,-5.1662016E-1,6.2676215E-1],"categories":[],"categories_nodes":[],"categories_segments":[],"categories_sizes":[],"default_left":[true,true,true,true,true,true,true,true,true,true,true,false,true,true,true,true,true,true,false,true,true,true,true,false,false,true,true,true,true,true,true,true,true,true,true,false,true,true,false,true,true,true,true,false,false,false,true,true,true,false,true,false,false,false,false,false,false,false,false,false,false,false,false,false,false,false,false,false,false,false,false,false,false,false,false,false,false,false,false,false,false,false,false],"id":15,"left_children":[1,3,5,7,9,11,13,15,17,19,21,-1,23,25,27,29,31,33,-1,35,37,39,41,-1,-1,43,45,47,49,51,53,55,57,59,61,-1,63,65,-1,67,69,71,73,-1,-1,-1,75,77,79,-1,81,-1,-1,-1,-1,-1,-1,-1,-1,-1,-1,-1,-1,-1,-1,-1,-1,-1,-1,-1,-1,-1,-1,-1,-1,-1,-1,-1,-1,-1,-1,-1,-1],"loss_changes":[2.171789E1,2.1735407E1,1.1784807E1,5.1838516E1,3.8574398E1,6.3427105E0,1.18061905E1,1.5235802E1,8.4001465E0,1.0651653E1,2.1189594E1,0E0,6.559329E-1,3.897705E0,2.1795325E0,1.632937E1,4.4374313E0,4.667282E0,0E0,5.497132E0,3.9905357E0,1.6597563E1,2.2718662E1,0E0,0E0,5.1372147E-1,3.5415792E0,2.5658183E0,8.544066E-1,1.3003899E1,7.2887125E0,1.579773E0,5.0609794E0,4.3964653E0,8.187466E0,0E0,7.7530603E0,3.231762E0,0E0,9.3772896E1,6.690143E1,2.2912014E1,1.970496E1,0E0,0E0,0E0,3.8327112E0,1.0654953E0,1.755856E0,0E0,1.4581183E0,0E0,0E0,0E0,0E0,0E0,0E0,0E0,0E0,0E0,0E0,0E0,0E0,0E0,0E0,0E0,0E0,0E0,0E0,0E0,0E0,0E0,0E0,0E0,0E0,0E0,0E0,0E0,0E0,0E0,0E0,0E0,0E0],"parents":[2147483647,0,0,1,1,2,2,3,3,4,4,5,5,6,6,7,7,8,8,9,9,10,10,12,12,13,13,14,14,15,15,16,16,17,17,19,19,20,20,21,21,22,22,25,25,26,26,27,27,28,28,29,29,30,30,31,31,32,32,33,33,34,34,36,36,37,37,39,39,40,40,41,41,42,42,46,46,47,47,48,48,50,50],"right_children":[2,4,6,8,10,12,14,16,18,20,22,-1,24,26,28,30,32,34,-1,36,38,40,42,-1,-1,44,46,48,50,52,54,56,58,60,62,-1,64,66,-1,68,70,72,74,-1,-1,-1,76,78,80,-1,82,-1,-1,-1,-1,-1,-1,-1,-1,-1,-1,-1,-1,-1,-1,-1,-1,-1,-1,-1,-1,-1,-1,-1,-1,-1,-1,-1,-1,-1,-1,-1,-1],"split_conditions":[5E-1,3.40835E4,2.0002E4,3.3606E4,3.5448E4,1.55E-1,1.6075E1,1.5275E1,1.55E1,3.499E4,1.44875E4,-2.4383552E-1,1.99E4,2.2175E4,1.832E1,1.5219999E1,1.6470001E1,2.5E0,-3.3050984E-1,6.69E0,5E-1,5.44485E4,5E-1,2.6958263E-1,3.3087417E-2,1.5665E1,5E-1,1.6470001E1,8.0875E3,3.33595E4,2.8E-1,5E-1,1.3499999E-1,1.5995E1,5E-1,3.2958692E-1,3.4491E4,5.1E3,1.477386E-1,5.38225E4,5.5075E4,5E-1,1.056485E5,-3.05871E-1,-8.617533E-2,-2.3535578E-1,1.4245E1,1.6375E1,1.733E1,2.6135138E-1,1.9765E1,1.9400088E-2,-2.2761971E-1,-5.093761E-1,1.8377973E-1,2.3350476E-1,7.45863E-2,-1.3501611E-1,1.4812171E-1,4.4355464E-1,-1.0416614E-1,2.728539E-1,-5.647706E-3,-3.3739263E-1,3.9798535E-2,-1.9731131E-1,-3.5220048E-1,-1.6325375E-2,2.643014E-1,-3.365729E-1,-2.43014E-2,-1.2946167E-2,1.1460615E-1,1.8527618E-1,-8.9248694E-2,3.6242867E-1,-1.8019372E-1,-2.6724443E-2,2.3028718E-1,-2.9562688E-1,-2.0162351E-2,-1.5498605E-1,1.8802865E-1],"split_indices":[9,1,1,1,1,5,4,4,7,1,3,0,1,3,4,4,4,7,0,4,8,1,14,0,0,4,6,4,3,1,5,12,5,4,11,0,1,3,0,1,1,11,1,0,0,0,4,4,4,0,4,0,0,0,0,0,0,0,0,0,0,0,0,0,0,0,0,0,0,0,0,0,0,0,0,0,0,0,0,0,0,0,0],"split_type":[0,0,0,0,0,0,0,0,0,0,0,0,0,0,0,0,0,0,0,0,0,0,0,0,0,0,0,0,0,0,0,0,0,0,0,0,0,0,0,0,0,0,0,0,0,0,0,0,0,0,0,0,0,0,0,0,0,0,0,0,0,0,0,0,0,0,0,0,0,0,0,0,0,0,0,0,0,0,0,0,0,0,0],"sum_hessian":[4.8849233E3,4.8044243E3,8.0498795E1,1.00664825E3,3.7977761E3,1.1329899E1,6.916889E1,9.165916E2,9.005665E1,8.4340256E1,3.7134358E3,2.418145E0,8.911754E0,5.2056694E1,1.71122E1,8.4825586E2,6.833574E1,8.8720856E1,1.3357959E0,2.3043417E1,6.129684E1,2.803036E3,9.104001E2,7.3540673E0,1.5576862E0,4.6038002E1,6.0186925E0,1.213562E1,4.9765806E0,8.405266E2,7.7292953E0,4.6039932E1,2.2295809E1,1.8425E1,7.029585E1,2.3238995E0,2.0719517E1,5.9885204E1,1.4116358E0,1.3557185E3,1.4473174E3,7.478322E2,1.6256787E2,4.409029E1,1.9477122E0,2.922723E0,3.0959694E0,4.4720297E0,7.66359E0,2.5030768E0,2.473504E0,8.218855E2,1.864111E1,6.601776E0,1.1275189E0,3.8048347E1,7.991586E0,8.15038E0,1.4145429E1,1.737049E1,1.05451E0,5.9057964E1,1.123789E1,6.2962985E0,1.4423219E1,2.8219978E1,3.1665226E1,1.2394159E3,1.1630252E2,6.3645046E1,1.3836724E3,5.872591E2,1.6057312E2,1.3473235E2,2.7835535E1,1.931598E0,1.1643714E0,2.4047806E0,2.0672493E0,3.0552268E0,4.608363E0,1.2352688E0,1.2382351E0],"tree_param":{"num_deleted":"0","num_feature":"17","num_nodes":"83","size_leaf_vector":"0"}},{"base_weights":[-9.9663564E-5,4.1180253E-1,-9.630804E-3,-1.1182544E-1,1.0285157E0,-2.318323E-3,-5.862328E-1,-3.6365874E-2,-9.136745E-1,-6.918248E-1,3.7808777E-3,-8.250393E-1,5.036252E-2,6.510382E-2,-8.156657E-1,-1.2165136E0,7.059224E-2,-9.333509E-1,2.7693257E-1,-3.2756087E-1,1.5268421E-2,-9.223781E-1,-1.1539412E-1,-9.9215604E-2,6.103342E-1,-1.1122745E-1,5.791167E-1,-1.2081771E0,5.1123416E-1,-1.0315704E0,4.9715656E-1,8.942281E-1,-1.136346E0,-5.760671E-1,-2.957718E-2,-9.512666E-3,1.4933798E-1,-1.0040405E0,1.0432042E-1,4.4904092E-1,-7.4371964E-1,-3.551731E-1,4.200316E-1,1.8294136E-1,7.02536E-1,7.502877E-2,-9.2597604E-1,-9.447262E-2,8.93294E-1,-2.1845745E-1,-1.2301054E0,-8.066324E-1,1.797569E0,-6.7267996E-1,1.259499E0,2.104199E-1,-5.161685E-1,6.615579E-3,-6.8634707E-1,7.948393E-2,7.3622304E-1,4.1476044E-1,-1.7300607E-1,3.3943344E-2,8.2442915E-1,-3.1926677E-2,-1.0801878E0,7.340927E-1,-8.449159E-2],"categories":[],"categories_nodes":[],"categories_segments":[],"categories_sizes":[],"default_left":[true,true,true,true,false,true,true,true,true,true,true,true,true,true,true,false,false,true,true,true,true,true,true,true,true,true,true,false,false,true,false,true,false,true,true,true,true,false,true,true,false,true,true,false,false,false,false,false,false,false,false,false,false,false,false,false,false,false,false,false,false,false,false,false,false,false,false,false,false],"id":16,"left_children":[1,3,5,7,-1,9,11,13,15,17,19,21,23,25,27,-1,-1,29,31,33,35,37,39,41,43,45,47,-1,-1,49,-1,51,-1,53,55,57,59,-1,61,63,-1,65,67,-1,-1,-1,-1,-1,-1,-1,-1,-1,-1,-1,-1,-1,-1,-1,-1,-1,-1,-1,-1,-1,-1,-1,-1,-1,-1],"loss_changes":[1.8953056E1,3.537339E1,1.9893707E1,3.5941708E0,0E0,1.9601723E1,9.024122E0,4.468264E0,1.6105247E0,9.82098E0,1.7592215E1,2.8656063E0,1.4895892E0,4.626012E0,4.0063543E0,0E0,0E0,5.1412983E0,8.804195E0,1.1451225E1,1.4841472E1,3.2650146E0,2.5798714E0,2.0530138E0,1.8716574E-2,5.8834257E0,2.8389802E0,0E0,0E0,4.7599525E0,0E0,1.1856145E1,0E0,1.5813204E1,8.455906E0,4.1167244E1,2.8510693E1,0E0,3.8884068E-1,5.8899975E-1,0E0,2.3411593E0,8.8405466E-1,0E0,0E0,0E0,0E0,0E0,0E0,0E0,0E0,0E0,0E0,0E0,0E0,0E0,0E0,0E0,0E0,0E0,0E0,0E0,0E0,0E0,0E0,0E0,0E0,0E0,0E0],"parents":[2147483647,0,0,1,1,2,2,3,3,5,5,6,6,7,7,8,8,9,9,10,10,11,11,12,12,13,13,14,14,17,17,18,18,19,19,20,20,21,21,22,22,23,23,24,24,25,25,26,26,29,29,31,31,33,33,34,34,35,35,36,36,38,38,39,39,41,41,42,42],"right_children":[2,4,6,8,-1,10,12,14,16,18,20,22,24,26,28,-1,-1,30,32,34,36,38,40,42,44,46,48,-1,-1,50,-1,52,-1,54,56,58,60,-1,62,64,-1,66,68,-1,-1,-1,-1,-1,-1,-1,-1,-1,-1,-1,-1,-1,-1,-1,-1,-1,-1,-1,-1,-1,-1,-1,-1,-1,-1],"split_conditions":[1.9984E4,1.55E-1,5E-1,1.4500001E-1,3.085547E-1,2.1454E4,1.6075E1,5E-1,9.5E0,5E-1,6.465E0,2.2175E4,5E-1,1.353E1,2.2E3,-3.649541E-1,2.1177672E-2,3.05E-1,1.2219999E1,5.5E0,1.4825E1,4.95E-1,4.5E0,1.832E1,3E0,1.2355E1,2.35E1,-3.6245313E-1,1.5337026E-1,2.05E3,1.4914697E-1,1.082E1,-3.4090382E-1,3.9499998E-1,6.0150003E0,1.4635E1,5E-1,-3.0121216E-1,1.39375E4,3.5E0,-2.231159E-1,1.7439999E1,8.0875E3,5.488241E-2,2.107608E-1,2.2508632E-2,-2.777928E-1,-2.8341787E-2,2.679882E-1,-6.553724E-2,-3.6903164E-1,-2.4198973E-1,5.3927076E-1,-2.01804E-1,3.778497E-1,6.312597E-2,-1.5485054E-1,1.9846738E-3,-2.0590413E-1,2.3845179E-2,2.2086692E-1,1.2442814E-1,-5.1901825E-2,1.0183004E-2,2.4732876E-1,-9.578004E-3,-3.2405636E-1,2.2022782E-1,-2.5347477E-2],"split_indices":[1,5,9,5,0,1,4,16,7,15,4,3,14,4,3,0,0,5,4,2,4,5,2,4,2,4,0,0,0,3,0,4,0,5,4,4,11,0,3,2,0,4,3,0,0,0,0,0,0,0,0,0,0,0,0,0,0,0,0,0,0,0,0,0,0,0,0,0,0],"split_type":[0,0,0,0,0,0,0,0,0,0,0,0,0,0,0,0,0,0,0,0,0,0,0,0,0,0,0,0,0,0,0,0,0,0,0,0,0,0,0,0,0,0,0,0,0,0,0,0,0,0,0,0,0,0,0,0,0,0,0,0,0,0,0,0,0,0,0,0,0],"sum_hessian":[4.8256895E3,1.0818331E2,4.7175063E3,5.894987E1,4.923344E1,4.6594194E3,5.808686E1,5.483488E1,4.11499E0,3.9868862E1,4.6195503E3,4.20257E1,1.606116E1,4.9328465E1,5.506415E0,2.9663458E0,1.1486446E0,3.1941822E1,7.9270396E0,1.5387021E2,4.46568E3,3.669293E1,5.3327723E0,1.33247175E1,2.736442E0,3.7312187E1,1.2016276E1,4.3184457E0,1.1879693E0,3.0150547E1,1.7912761E0,5.772833E0,2.1542063E0,8.3391716E1,7.04785E1,3.7698074E3,6.9587286E2,3.400989E1,2.6830366E0,2.9595222E0,2.37325E0,9.136807E0,4.1879096E0,1.0151141E0,1.721328E0,3.1108515E1,6.2036743E0,4.044423E0,7.9718533E0,6.32921E0,2.3821337E1,2.039606E0,3.733227E0,7.982381E1,3.5679023E0,4.7579063E1,2.2899433E1,3.683035E3,8.677258E1,6.2287103E2,7.3001854E1,1.0321159E0,1.6509206E0,1.9232494E0,1.0362729E0,7.041434E0,2.095374E0,2.3007135E0,1.8871962E0],"tree_param":{"num_deleted":"0","num_feature":"17","num_nodes":"69","size_leaf_vector":"0"}},{"base_weights":[-3.0854088E-5,1.8992135E-2,-1.5805E-1,-3.128264E-1,3.0913929E-2,-9.157351E-1,-4.965237E-2,8.7847345E-2,-4.9423632E-1,-1.2874159E-2,1.1187716E-1,3.6295637E-2,-9.6193415E-1,1.7811202E-1,-1.8204305E-1,-1.6934377E-1,1.307196E0,-6.618378E-1,9.7889155E-2,-3.9106116E-2,3.2781997E-1,2.919691E-1,4.9492206E-2,-6.6176426E-1,6.302153E-1,-1.0367756E0,-5.3113E-1,2.643869E-1,-9.236047E-1,1.1734445E0,-2.2196446E-1,-3.0701783E-1,1.5839877E0,3.6947623E-1,2.947967E0,-7.9905283E-1,2.444675E-1,-1.5092891E0,3.465864E-1,-1.8050759E-1,2.5351403E-2,1.2494045E-1,9.8940945E-1,1.0965659E-1,7.388053E-1,4.2407483E-2,1.7554803E0,-1.0519406E0,7.447767E-1,-1.3376497E-1,4.6473557E-1,-1.2410644E0,3.2218486E-1,-8.224218E-1,1.7812825E0,-3.5550132E-1,9.7674936E-2,-8.7369464E-2,-9.853867E-1,1.8487486E0,-5.3528476E-1,5.1816875E-1,-8.671421E-1,1.6512117E0,-6.1754715E-1,6.567435E-1,-6.752255E-1,-1.4261958E-1,-1.0103581E0,4.1580208E-2,-4.4013107E-1,4.0972868E-1,-1.52419E-3,2.2714747E-1,-3.3025917E-1,9.4344115E-1,1.2771724E-1,2.2327034E-1,-1.4138766E-2,7.3356724E-1,2.415108E0,1.8244934E-1,-7.317434E-1,-1.2647466E-1,6.4424855E-1,5.285078E-1,-2.3445914E-2,2.2515624E0,7.5541484E-1,-3.9881557E-1,9.28997E-1,-4.005855E-3,1.1400938E0],"categories":[],"categories_nodes":[],"categories_segments":[],"categories_sizes":[],"default_left":[true,true,true,true,true,true,true,true,true,true,true,true,true,true,true,true,true,true,true,true,true,true,true,false,false,false,true,true,true,true,true,true,false,true,false,true,true,false,true,true,true,true,false,true,true,true,true,false,false,true,true,false,true,false,true,true,true,false,false,false,false,false,false,false,false,false,false,false,false,false,false,false,false,false,false,false,false,false,false,false,false,false,false,false,false,false,false,false,false,false,false,false,false],"id":17,"left_children":[1,3,5,7,9,11,13,15,17,19,21,23,25,27,29,31,33,35,37,39,41,43,45,-1,-1,-1,47,49,51,53,55,57,-1,59,-1,61,63,-1,65,67,69,71,-1,73,75,77,79,-1,-1,81,83,-1,85,-1,87,89,91,-1,-1,-1,-1,-1,-1,-1,-1,-1,-1,-1,-1,-1,-1,-1,-1,-1,-1,-1,-1,-1,-1,-1,-1,-1,-1,-1,-1,-1,-1,-1,-1,-1,-1,-1,-1],"loss_changes":[1.4374908E1,1.689432E1,4.215597E1,1.0809967E1,1.4611757E1,2.860939E0,1.3619048E1,1.4964827E1,1.0198391E1,2.3923916E1,1.6238487E1,2.0494332E0,1.4262695E0,1.6035343E1,1.5706582E1,1.0071633E1,1.1686585E1,1.0108395E1,9.875141E0,2.2654873E1,2.5564068E1,3.0222555E1,1.2926256E1,0E0,0E0,0E0,8.176619E0,1.2414168E1,5.259465E0,1.1564928E1,1.1905752E1,5.5247164E0,0E0,9.591592E0,0E0,6.679638E0,1.4658722E1,0E0,7.1227283E0,2.432515E1,1.2919894E1,5.3169184E0,0E0,1.3790899E1,1.3337334E1,1.0968865E1,1.2103338E0,0E0,0E0,1.0081802E1,1.1037821E1,0E0,2.4695185E-1,0E0,1.5303707E0,1.1296503E1,8.774161E0,0E0,0E0,0E0,0E0,0E0,0E0,0E0,0E0,0E0,0E0,0E0,0E0,0E0,0E0,0E0,0E0,0E0,0E0,0E0,0E0,0E0,0E0,0E0,0E0,0E0,0E0,0E0,0E0,0E0,0E0,0E0,0E0,0E0,0E0,0E0,0E0],"parents":[2147483647,0,0,1,1,2,2,3,3,4,4,5,5,6,6,7,7,8,8,9,9,10,10,11,11,12,12,13,13,14,14,15,15,16,16,17,17,18,18,19,19,20,20,21,21,22,22,26,26,27,27,28,28,29,29,30,30,31,31,33,33,35,35,36,36,38,38,39,39,40,40,41,41,43,43,44,44,45,45,46,46,49,49,50,50,52,52,54,54,55,55,56,56],"right_children":[2,4,6,8,10,12,14,16,18,20,22,24,26,28,30,32,34,36,38,40,42,44,46,-1,-1,-1,48,50,52,54,56,58,-1,60,-1,62,64,-1,66,68,70,72,-1,74,76,78,80,-1,-1,82,84,-1,86,-1,88,90,92,-1,-1,-1,-1,-1,-1,-1,-1,-1,-1,-1,-1,-1,-1,-1,-1,-1,-1,-1,-1,-1,-1,-1,-1,-1,-1,-1,-1,-1,-1,-1,-1,-1,-1,-1,-1],"split_conditions":[5E-1,3.5E-2,1.0975E1,2.5E0,5.5E0,1.96E4,2.5E0,3.35E3,1.4385E1,3.05E-1,5.0625E3,1.55E-1,3.05E-1,1.25E1,2.4999999E-2,4.95E1,5E-1,1.05E1,3.5E0,1.0955E1,5E-1,4.9875E3,5E-1,-1.9852929E-1,1.8906459E-1,-3.1103268E-1,5E-1,5E-1,1.5635E1,3.5E0,2.25E-1,1.3415E1,4.7519633E-1,1.18E5,8.843902E-1,3.2099E4,5.75E4,-4.5278677E-1,5E-1,1.0725E1,1.55E1,1.5E0,2.9682285E-1,1.339E1,2.85E1,2.35E1,5E-1,-3.155822E-1,2.2343303E-1,1.3825E4,1.05000004E-1,-3.7231934E-1,4.05E1,-2.4672654E-1,6E0,1.9605E1,9.375E4,-2.621084E-2,-2.9561603E-1,5.546246E-1,-1.6058543E-1,1.5545063E-1,-2.6014262E-1,4.9536353E-1,-1.8526416E-1,1.9702306E-1,-2.0256765E-1,-4.2785875E-2,-3.0310744E-1,1.2474063E-2,-1.3203932E-1,1.22918606E-1,-4.57257E-4,6.814425E-2,-9.907775E-2,2.8303236E-1,3.8315173E-2,6.698111E-2,-4.24163E-3,2.2007018E-1,7.245324E-1,5.4734804E-2,-2.1952303E-1,-3.7942402E-2,1.9327457E-1,1.5855235E-1,-7.033774E-3,6.7546874E-1,2.2662446E-1,-1.1964468E-1,2.786991E-1,-1.2017565E-3,3.4202814E-1],"split_indices":[16,5,4,2,2,1,2,3,4,5,3,5,5,7,5,0,11,7,2,4,10,3,8,0,0,0,10,10,4,7,5,4,0,1,0,1,1,0,12,4,7,2,0,4,0,0,15,0,0,3,5,0,0,0,2,4,1,0,0,0,0,0,0,0,0,0,0,0,0,0,0,0,0,0,0,0,0,0,0,0,0,0,0,0,0,0,0,0,0,0,0,0,0],"split_type":[0,0,0,0,0,0,0,0,0,0,0,0,0,0,0,0,0,0,0,0,0,0,0,0,0,0,0,0,0,0,0,0,0,0,0,0,0,0,0,0,0,0,0,0,0,0,0,0,0,0,0,0,0,0,0,0,0,0,0,0,0,0,0,0,0,0,0,0,0,0,0,0,0,0,0,0,0,0,0,0,0,0,0,0,0,0,0,0,0,0,0,0,0],"sum_hessian":[4.7800786E3,4.2672495E3,5.128291E2,1.4712373E2,4.120126E3,6.3252758E1,4.4957635E2,4.6012745E1,1.01110985E2,2.674495E3,1.4456307E3,2.9373202E0,6.031544E1,1.651344E2,2.8444193E2,3.8709137E1,7.3036056E0,7.871338E1,2.2397604E1,2.4841143E3,1.9038072E2,3.70988E2,1.0746428E3,1.2977663E0,1.6395539E0,5.018964E1,1.0125801E1,1.5384677E2,1.1287638E1,7.32531E0,2.7711664E2,3.665577E1,2.0533683E0,5.427125E0,1.8764807E0,6.846595E1,1.0247434E1,2.322155E0,2.0075449E1,7.772495E2,1.7068649E3,1.466107E2,4.377001E1,2.6436893E2,1.0661909E2,1.071219E3,3.4237592E0,7.3153095E0,2.810491E0,5.1611618E1,1.02235146E2,8.998403E0,2.289235E0,1.627688E0,5.6976223E0,1.953799E2,8.1736725E1,2.854274E1,8.11303E0,1.6636778E0,3.763447E0,3.0402699E0,6.542568E1,3.5456567E0,6.7017765E0,1.5674839E1,4.400609E0,7.4443317E2,3.2816307E1,1.6502407E3,5.6624115E1,4.439557E1,1.0221513E2,2.0902663E2,5.5342308E1,7.946475E1,2.7154337E1,2.5444135E2,8.1677765E2,2.1715808E0,1.2521783E0,3.421397E1,1.7397646E1,2.3880915E1,7.835423E1,1.1021812E0,1.187054E0,3.0874708E0,2.6101515E0,1.896735E2,5.706416E0,7.538007E1,6.356651E0],"tree_param":{"num_deleted":"0","num_feature":"17","num_nodes":"93","size_leaf_vector":"0"}},{"base_weights":[-5.6577194E-4,-9.540037E-3,2.8700945E-1,1.689794E-2,-1.2305412E-1,2.1732034E-1,7.787317E-1,1.5506641E-3,6.8792945E-1,-1.0910224E0,-8.132849E-2,5.363091E-1,1.0300669E-1,3.549065E-1,1.07695E0,2.1495657E-2,-2.3314926E-1,8.4563583E-1,9.9780954E-2,3.6007956E-2,-1.2026055E0,-1.0323873E-1,4.825438E-1,8.4105027E-1,1.517422E-1,-6.018441E-1,2.2331396E-1,6.8489826E-1,-5.1295817E-1,4.159681E-1,1.1600019E0,-3.0447291E-3,2.094166E-1,-6.028768E-1,-1.23387486E-1,7.039809E-1,1.500804E0,-3.1253707E-1,8.863203E-1,-7.1204937E-1,1.1635355E0,2.53486E-1,-1.4620967E-1,-1.1075795E-2,1.9780188E0,9.6638024E-1,-2.3856854E-1,-1.7378567E-1,8.274513E-1,-1.2803613E-1,-1.20112E0,-3.2850865E-1,3.1647813E-1,8.4896475E-1,2.3104718E-1,-3.04644E-2,2.0440538E-1,1.3385804E0,3.869464E-2,-8.877098E-1,2.3363818E-1,-4.8877034E-2,-6.716079E-1,9.118697E-1,-3.8299936E-1,1.9268166E0,4.284929E-1,3.0977085E-2,-1.1485053E0,1.2226367E0,-1.4751706E-1,5.005992E-1,-4.468634E-1,-8.461331E-2,-4.42534E-1,5.856259E-1,-6.30808E-1,5.036777E-1,2.3589041E0,1.0300211E0,2.5532112E-1,-6.67744E-1,4.8447347E-1,9.8920447E-1,1.993141E-1,7.767553E-1,-4.5176595E-1,-1.500696E0,-3.896077E-2,-7.8380036E-1,8.918485E-1,3.6933354E-1,-7.73799E-1,9.8941267E-1,2.1287926E-1],"categories":[],"categories_nodes":[],"categories_segments":[],"categories_sizes":[],"default_left":[true,true,true,true,true,true,true,true,true,true,true,true,true,true,true,true,true,true,true,true,false,true,true,true,true,true,true,true,false,false,false,true,true,true,true,true,true,true,true,false,false,true,true,true,true,true,false,true,true,true,true,true,true,true,false,false,false,false,false,false,false,false,false,false,false,false,false,false,false,false,false,false,false,false,false,false,false,false,false,false,false,false,false,false,false,false,false,false,false,false,false,false,false,false,false],"id":18,"left_children":[1,3,5,7,9,11,13,15,17,19,21,23,25,27,29,31,33,35,37,39,-1,41,43,45,47,49,51,53,-1,-1,-1,55,57,59,61,63,65,67,69,-1,-1,71,73,75,77,79,-1,81,83,85,87,89,91,93,-1,-1,-1,-1,-1,-1,-1,-1,-1,-1,-1,-1,-1,-1,-1,-1,-1,-1,-1,-1,-1,-1,-1,-1,-1,-1,-1,-1,-1,-1,-1,-1,-1,-1,-1,-1,-1,-1,-1,-1,-1],"loss_changes":[1.22106695E1,1.3771497E1,4.7373114E0,3.8332993E1,3.492279E1,4.568358E0,1.8153019E0,1.7044483E1,7.6353607E0,4.53817E0,1.0330235E1,3.7647943E0,8.15489E0,2.8350224E0,5.0732613E-2,1.5476767E1,1.1499246E1,